{"layers":[{"out_depth":1,"out_sx":24,"out_sy":24,"layer_type":"input"},{"sx":5,"sy":5,"stride":1,"in_depth":1,"out_depth":8,"out_sx":24,"out_sy":24,"layer_type":"conv","l1_decay_mul":0,"l2_decay_mul":1,"pad":2,"filters":[{"sx":5,"sy":5,"depth":1,"w":{"0":-0.12979833799215645,"1":-0.09849896413541462,"2":0.13910118705859015,"3":0.2077520551972586,"4":-0.12676355983218549,"5":-0.5169159990032131,"6":0.18676562721671372,"7":0.10415678678648076,"8":0.19358922804791362,"9":-0.08155861651053949,"10":-0.32549780363599523,"11":-0.06894168224638907,"12":-0.14219178087468895,"13":0.28176648552419603,"14":0.31635036242957665,"15":0.45716756531472635,"16":-0.05729626230057841,"17":-0.0035727955196729077,"18":-0.030491558168164255,"19":0.5633423127201922,"20":-0.04755693831306484,"21":-0.1297709581951336,"22":-0.19019337843826825,"23":-0.09608382573762318,"24":-0.09258030179303037}},{"sx":5,"sy":5,"depth":1,"w":{"0":0.3943851144758452,"1":0.14386195856983902,"2":-0.16950633903208157,"3":0.020016421009527854,"4":-0.1784824387924041,"5":0.2668224006224694,"6":0.6725414496073913,"7":0.4676129778174856,"8":0.6786336440057952,"9":0.38322766689232346,"10":0.26719555512287885,"11":0.32357343192930615,"12":0.6037482777687956,"13":0.3396903270123909,"14":0.13540573363549194,"15":-0.08431602649830042,"16":-0.4792469258763224,"17":-0.3440268095990627,"18":-0.1357184211191575,"19":0.047048437888169,"20":-0.7640837166927664,"21":-0.7581491206837495,"22":-0.23060069159221463,"23":-0.576586561747057,"24":0.06115889064238447}},{"sx":5,"sy":5,"depth":1,"w":{"0":-0.2309448301482379,"1":-0.3498723242977703,"2":-0.5857633110344984,"3":0.25680374578853493,"4":-0.11344506826863407,"5":-0.344740328500659,"6":-0.5633439154194637,"7":-0.06348938171751296,"8":0.5708795910763405,"9":0.1486421054710667,"10":0.09419749633887789,"11":-0.04230578265267882,"12":0.28215657259073307,"13":0.20682230140694563,"14":-0.07829378757236058,"15":0.05750414419948036,"16":0.14746140025771157,"17":0.24436893796490736,"18":-0.007778710594025807,"19":-0.06019073137507908,"20":-0.10880253365770132,"21":0.5944912263607146,"22":0.2651955730375332,"23":0.06830493244711777,"24":0.0396408604048633}},{"sx":5,"sy":5,"depth":1,"w":{"0":-0.36135542366971696,"1":-0.5076865160529771,"2":-0.3056920950068,"3":-0.14518624705223582,"4":0.027086834295603743,"5":-0.04085043220565964,"6":-0.7250091449999603,"7":-0.4521451465731452,"8":-0.35540427418290543,"9":-0.1713503306955334,"10":0.3409895006304929,"11":-0.10012549671265261,"12":-0.12932752822359794,"13":-0.6516685212747338,"14":-0.27745062302585377,"15":0.344798341911217,"16":0.23234779808873046,"17":0.31408388934516857,"18":-0.34230690571837286,"19":-0.2820917568439494,"20":0.3868302103369047,"21":0.5044657937820558,"22":0.445295168379342,"23":0.24993360672502873,"24":0.1053001026546131}},{"sx":5,"sy":5,"depth":1,"w":{"0":-0.20905810230978192,"1":-0.08478250476729275,"2":0.41196231321029714,"3":0.07312085653633012,"4":0.13087212006334814,"5":0.14471145192300358,"6":0.5036752015071697,"7":-0.11419049488865157,"8":0.0076695558098106974,"9":0.1419839396144523,"10":0.3937703007191014,"11":0.0189189754995217,"12":0.28134229811035294,"13":-0.37903554743818774,"14":-0.14767148311851633,"15":0.19764596691286057,"16":0.47074604603628695,"17":0.11374187008150097,"18":-0.2690972116791782,"19":-0.3780848555776354,"20":0.4464415711941995,"21":-0.0888804145788962,"22":-0.01976494648600946,"23":-0.494999078581201,"24":-0.39717449012770617}},{"sx":5,"sy":5,"depth":1,"w":{"0":-0.40381177832118426,"1":-0.10088989848574632,"2":-0.20140729691842632,"3":0.36791149362463715,"4":-0.08645257914957181,"5":-0.07273506610250831,"6":0.0762853765318335,"7":0.12800649434418324,"8":0.16631625189452412,"9":0.19998357576361675,"10":0.03153777311250279,"11":0.0022368128801259907,"12":0.1532864122950755,"13":0.5737105992708762,"14":0.4384266388854997,"15":0.295167976595946,"16":-0.06266098136747622,"17":0.07660849789255995,"18":0.1050551276978546,"19":0.12018279176830513,"20":-0.370138755948499,"21":-0.3923930083232346,"22":-0.07123103331897983,"23":0.027314292125720126,"24":0.33121761447198605}},{"sx":5,"sy":5,"depth":1,"w":{"0":0.012501687723194441,"1":-0.5267882392776301,"2":-0.31794081726236756,"3":-0.28337975197749105,"4":-0.10414140962316011,"5":-0.4800611559667005,"6":-0.3746595575255868,"7":-0.1955225746888509,"8":0.0053332185417390675,"9":0.3705095885065722,"10":-0.6173399026518512,"11":-0.5703484124447025,"12":0.3090840806427169,"13":0.492048811746411,"14":0.08658300652516415,"15":-0.4777363582507384,"16":-0.537249313470432,"17":-0.06889118776900327,"18":0.6583019305497386,"19":0.2247083551248626,"20":-0.5646404723587283,"21":-0.46596140800245534,"22":0.05292894502977208,"23":0.6052526896650164,"24":0.3185147367481603}},{"sx":5,"sy":5,"depth":1,"w":{"0":0.35904781971426497,"1":-0.33742000293267105,"2":0.25963329907115,"3":0.028063766486851546,"4":-0.3203667065099085,"5":-0.09636073481888795,"6":0.31535312317679065,"7":0.04912224038646216,"8":-0.16855373494150688,"9":-0.42858157514748657,"10":0.3708501220680041,"11":0.23387219824589778,"12":-0.002362599160753822,"13":-0.5022231428791802,"14":-0.2727076355478369,"15":0.04179014267029526,"16":0.03810235399385603,"17":0.08995123510851524,"18":-0.45076609543224094,"19":0.003915187506425735,"20":0.576785340272713,"21":0.40066145452991697,"22":0.015857662043625154,"23":-0.3488710819239022,"24":0.054837715547596914}}],"biases":{"sx":1,"sy":1,"depth":8,"w":{"0":-0.020546001849719445,"1":0.09708082981116946,"2":-0.06916371786091412,"3":0.23311878252002818,"4":-0.12248781972399642,"5":-0.01738815698634083,"6":0.06154112602587793,"7":0.04227974891858856}}},{"out_depth":8,"out_sx":24,"out_sy":24,"layer_type":"relu"},{"sx":2,"sy":2,"stride":2,"in_depth":8,"out_depth":8,"out_sx":12,"out_sy":12,"layer_type":"pool","pad":0},{"sx":5,"sy":5,"stride":1,"in_depth":8,"out_depth":16,"out_sx":12,"out_sy":12,"layer_type":"conv","l1_decay_mul":0,"l2_decay_mul":1,"pad":2,"filters":[{"sx":5,"sy":5,"depth":8,"w":{"0":-0.017448071409719913,"1":0.04822735136385522,"2":0.03331352396752915,"3":-0.03228700673414763,"4":0.07779181609317888,"5":0.20923228170922759,"6":0.16175435369218116,"7":0.16425024625038562,"8":0.03209810592028513,"9":0.1939061875655153,"10":-0.015738649309623622,"11":-0.14333567498750235,"12":0.1672557160802094,"13":-0.15377977454204433,"14":-0.06213380820912956,"15":0.03030403925426644,"16":-0.1296253805132397,"17":-0.055004955178083154,"18":-0.12195984939133159,"19":-0.02592414711661535,"20":-0.0948163864278264,"21":-0.04532258871175034,"22":-0.1400260571469457,"23":-0.15672836660663395,"24":-0.03625140910673845,"25":0.04662344875166179,"26":-0.16284615265011487,"27":-0.039879444477979614,"28":-0.1421336836024229,"29":0.17266928314333277,"30":0.14101828796685023,"31":-0.017610480695308323,"32":-0.06592944315042289,"33":-0.07487122140920968,"34":0.03509003082827342,"35":-0.07963832384324361,"36":0.13565666633877432,"37":0.005081395993126838,"38":0.37063659657115267,"39":0.15127777649493748,"40":-0.02322537084843805,"41":0.03634610965943652,"42":-0.04402050720312693,"43":-0.1667441981232261,"44":0.14735497567517417,"45":-0.16799180117646337,"46":-0.03772197097544539,"47":0.3259932220817024,"48":-0.2763216695545223,"49":0.03497111272945703,"50":-0.29811421946921296,"51":0.04548001679966744,"52":-0.19427459978289577,"53":-0.06611891110979011,"54":0.08559666779413168,"55":0.043738208655298025,"56":-0.16100955159607352,"57":-0.10435928829210096,"58":-0.1495683759485857,"59":-0.1735780300981306,"60":-0.07814568800393154,"61":-0.10358000689733605,"62":0.02459959792462364,"63":-0.13339482806574335,"64":0.07766915892697362,"65":0.04510818252221234,"66":0.02211033000031397,"67":-0.042655879173901984,"68":-0.007713699984875871,"69":0.16258069363460234,"70":0.23519296980764115,"71":0.07132846109131927,"72":0.08203067176974287,"73":0.07455520748227243,"74":0.235867746701054,"75":-0.0005203352939584186,"76":0.09517857620669858,"77":0.17891092005349568,"78":0.36581524270570337,"79":0.22806533596365677,"80":-0.07676451777553484,"81":0.06733694632087331,"82":-0.18927619439998822,"83":-0.24035758063995444,"84":0.11569236478624452,"85":-0.11633872982626077,"86":0.005450880999239565,"87":0.14809857528145853,"88":-0.15555730538011558,"89":-0.21983095422912424,"90":-0.14092330811776144,"91":-0.03817239633154745,"92":-0.2848472607183581,"93":-0.16148244098126008,"94":-0.05022743369973939,"95":-0.07438172221457116,"96":-0.1600917817561918,"97":-0.24877874642598766,"98":0.02190259636258359,"99":0.03202382386493602,"100":-0.04879953696173504,"101":-0.14721318441151054,"102":-0.0770152310034543,"103":-0.10729658599462089,"104":0.08084699330194534,"105":0.03657076485689172,"106":0.01571489092452855,"107":-0.0018826748219213092,"108":-0.023570698352572233,"109":0.09472299266385258,"110":-0.009675348086959771,"111":-0.0005947591377608241,"112":0.2079738714690688,"113":0.10604817336168147,"114":0.054273660154303745,"115":-0.1494090513524217,"116":-0.03501175206153083,"117":0.0829363485487501,"118":0.19513666301888513,"119":0.002767360003642151,"120":0.0012207227705446153,"121":-0.05305765213725635,"122":-0.08649146574799749,"123":-0.04691440382692758,"124":-0.1400294261048937,"125":-0.16338565193141438,"126":0.05733670353405873,"127":-0.0002166644140892055,"128":-0.16072133055956558,"129":-0.2608525628276488,"130":-0.05937056074673635,"131":0.007015162662114837,"132":0.049616176200445596,"133":-0.16763230925996106,"134":0.06291703978735572,"135":-0.013262518392181066,"136":0.037772638598260945,"137":0.04914032317726322,"138":-0.05980494175246325,"139":-0.029206668570606466,"140":-0.008196845639451935,"141":-0.13535149463079332,"142":-0.08893047758126346,"143":0.003823643730664345,"144":-0.10319029636184172,"145":-0.19286967409269773,"146":-0.14976918269452924,"147":0.2049740369052967,"148":-0.08498262921673932,"149":-0.08303071873669872,"150":-0.02785337449632544,"151":0.00319160303782396,"152":-0.069049301219355,"153":-0.26296297633970794,"154":-0.07096320318789312,"155":0.14818858425574472,"156":-0.17755467868934147,"157":-0.1997056803182367,"158":-0.1460508359684264,"159":-0.09020760909174858,"160":0.04132575191531693,"161":-0.3619529536184527,"162":0.05571588243958892,"163":0.08178900395936953,"164":-0.044800269852431705,"165":0.13440016301665586,"166":0.1904895727398297,"167":0.0033142730972049,"168":0.04376837259755677,"169":-0.16156067062571103,"170":0.23564343524743964,"171":0.23128270954472396,"172":0.23223874485546694,"173":0.024055122540662128,"174":0.12287487046267194,"175":0.11856335488907448,"176":0.13689975044836356,"177":0.016184512471133266,"178":0.17684795002939305,"179":0.05647393004502114,"180":0.07379576728084922,"181":-0.19364387326751162,"182":0.08252989781855813,"183":0.10303130017245833,"184":-0.04464550931419203,"185":-0.027075438316005427,"186":-0.042935398597820404,"187":0.1950135309271172,"188":0.06825335967118669,"189":-0.004278507896862859,"190":0.15276650272368722,"191":0.21164613629213366,"192":-0.1421669828348466,"193":-0.23337307390980846,"194":-0.031773858048199204,"195":0.3228494696101556,"196":-0.0011811042383182433,"197":-0.1239733947447009,"198":0.03944697561429109,"199":-0.12764089830794478}},{"sx":5,"sy":5,"depth":8,"w":{"0":-0.26921444125582605,"1":-0.15760411124204324,"2":0.03277733406309685,"3":0.08711754781935997,"4":-0.11211217757086069,"5":-0.10317642823657237,"6":-0.10090788127096485,"7":-0.18372590015755155,"8":0.22531975693384923,"9":-0.06510818193018814,"10":0.1555440665503895,"11":0.006686648457265763,"12":-0.047414430425223225,"13":-0.009770425644981227,"14":-0.00994622258673476,"15":-0.23520988959281397,"16":0.03370429151223956,"17":-0.044532624204928026,"18":0.08495398217505636,"19":0.13336247602796605,"20":0.06263321189829277,"21":0.07452359467341686,"22":-0.04983350217941071,"23":0.15273933107335272,"24":0.07318701739306291,"25":-0.09761043553266316,"26":-0.07111652902792799,"27":0.032111904581118844,"28":0.010132429575464442,"29":0.06139329556334336,"30":-0.10629790072832213,"31":-0.1162160957289631,"32":0.10548572331797003,"33":-0.039535376784032045,"34":-0.020194498977995988,"35":-0.23680078174848962,"36":0.0423865122835937,"37":0.038517322265599736,"38":-0.21179120416671787,"39":-0.06585166551149532,"40":0.14689485761870338,"41":-0.09260936517192163,"42":0.22829797876164995,"43":-0.17819182794526273,"44":0.06257523770265049,"45":-0.10732254078537325,"46":-0.02562921529210527,"47":-0.2115884188015982,"48":-0.00778408157595364,"49":-0.04545688824064648,"50":0.18582412522306171,"51":-0.20343393363651058,"52":0.3127951558130818,"53":-0.07185003235987646,"54":-0.15430703901953538,"55":-0.027314943710507553,"56":0.10231533381858439,"57":0.21184556889254003,"58":-0.0209874956502029,"59":-0.260774487174654,"60":0.12406171077470782,"61":0.29858129092612395,"62":-0.10299579075082499,"63":-0.04078987279650929,"64":-0.0784585658861929,"65":0.17326676014526446,"66":-0.06062338294207195,"67":-0.12423842862140846,"68":0.03435434863145981,"69":0.011302114672838343,"70":-0.3157106251333423,"71":-0.16532552125466488,"72":-0.07468736057357005,"73":0.023487188511190978,"74":0.07856553830171904,"75":0.003230481057321516,"76":0.039277242106737276,"77":0.02599300705823374,"78":-0.2249953212324777,"79":-0.0949167804210172,"80":-0.00046607710645276464,"81":0.11180811011437418,"82":0.22582902026486038,"83":-0.2188899834699478,"84":0.13144297815384104,"85":0.03234811817615023,"86":0.11343397036389269,"87":0.17437444574410077,"88":-0.03230013872753445,"89":0.039782529736355376,"90":-0.0016421454698989841,"91":-0.2450898760318147,"92":0.2769568810246229,"93":0.03110324472113497,"94":-0.13641192523584397,"95":0.14526133698048876,"96":-0.012769762002291123,"97":0.04170985803733824,"98":-0.2279716361690748,"99":-0.09299778070064829,"100":-0.17059356385318775,"101":-0.08164630339599932,"102":-0.051302107578236396,"103":-0.1004301177401809,"104":0.0757407932132102,"105":-0.1516364784307082,"106":-0.016642946271044498,"107":-0.09542827185627563,"108":-0.01831453684370276,"109":-0.07285713550362849,"110":0.03643243218016526,"111":-0.12927443273030922,"112":-0.1580705353872635,"113":-0.14902329003964776,"114":0.07652906769785453,"115":-0.1065302649830194,"116":0.03946708064973981,"117":-0.1512721592580443,"118":-0.1617802136289335,"119":0.004901662196563949,"120":-0.058474327830871066,"121":0.03103681482393335,"122":-0.24590827459607695,"123":-0.10003445827836706,"124":-0.017325825294770586,"125":-0.1260234552769705,"126":-0.13075397923629814,"127":0.10653762039279949,"128":-0.008908015452197946,"129":-0.061578339059788705,"130":-0.14197213630777605,"131":0.17442987729468232,"132":-0.14562335109488725,"133":-0.1649649385511964,"134":-0.06646850984781398,"135":0.12391086234790177,"136":0.030842186011418627,"137":-0.10423280988998032,"138":0.1607659164929894,"139":0.20519509560721041,"140":0.05261602237522998,"141":0.020673989587012064,"142":-0.07059168282501481,"143":0.04575630456910573,"144":0.09364747471800289,"145":0.05449068270171249,"146":0.14529971518557652,"147":0.12686867793764758,"148":-0.04950069155233748,"149":-0.0698976051076958,"150":0.12673971031359293,"151":-0.05155631247565152,"152":-0.13580745266994995,"153":-0.03191896188463811,"154":-0.058609926322654084,"155":-0.11653229344173312,"156":-0.060828775224480644,"157":0.03559974363829713,"158":-0.005124789343217175,"159":-0.21330026919438191,"160":0.10589697959496011,"161":0.03321371421744039,"162":-0.1749997854296903,"163":0.13347465637835593,"164":-0.12218480594923056,"165":0.05732552108012712,"166":-0.07730103922188808,"167":-0.10757388154182085,"168":-0.02983516252555493,"169":0.07422691218454594,"170":-0.012224868910839931,"171":0.09229327137077242,"172":-0.11464678246168812,"173":-0.020909396487902656,"174":-0.2419041444631649,"175":-0.0702825406406377,"176":0.0352676362359577,"177":0.028041846779212273,"178":0.08630003330198786,"179":0.023330742602775487,"180":0.061409463052847994,"181":-0.017284182347883544,"182":-0.15072743865864932,"183":0.10369263070745868,"184":-0.05890886629556793,"185":0.005552072070392287,"186":-0.05943002324167652,"187":0.005606290571578114,"188":-0.05170655240081337,"189":-0.000358707696134713,"190":-0.1287088405310451,"191":0.010220787607922312,"192":0.08574319768518746,"193":0.08673733636877325,"194":-0.08472299420614071,"195":0.09957956791112024,"196":-0.18457885271483823,"197":-0.013728818336798326,"198":-0.01335363297089847,"199":-0.035026855592671616}},{"sx":5,"sy":5,"depth":8,"w":{"0":-0.0017172916477178925,"1":0.04097036219777719,"2":-0.12134655857812328,"3":-0.04209022738267267,"4":-0.026777889709907073,"5":-0.013033568877728344,"6":0.08961241179373616,"7":-0.03489986080098288,"8":0.056339914175406514,"9":0.1456481353445999,"10":0.0809794358861278,"11":-0.10427461972780534,"12":-0.13199534647996267,"13":0.17786362512827364,"14":0.07006702410381126,"15":0.061396040738613336,"16":-0.046921415251719244,"17":-0.005697070419707843,"18":0.1381279124671037,"19":0.04073665390296181,"20":-0.044973118158577755,"21":0.05765274840359551,"22":-0.11926658579729608,"23":0.19857113848111616,"24":-0.01011077897772287,"25":-0.20000262955888837,"26":-0.030708161729855358,"27":0.34786506877914125,"28":-0.0011014350543798851,"29":-0.11621663082722838,"30":-0.35880144878039927,"31":0.13379555788148195,"32":-0.017891408600670858,"33":-0.06143653492116495,"34":0.19136326958659905,"35":0.18316805177433088,"36":-0.09192441084758693,"37":-0.19221332433075722,"38":-0.1395035526395944,"39":0.03987625657766053,"40":0.10483677408295088,"41":0.012310448434249633,"42":-0.006975132550523461,"43":-0.09230575680048525,"44":-0.08096644864318236,"45":-0.07418872681584096,"46":-0.1462168739231602,"47":-0.07848054093350852,"48":0.08498229495473719,"49":0.20057334268622162,"50":-0.01293839775103109,"51":-0.13626462082089508,"52":-0.028372048260734237,"53":0.12761192981339015,"54":-0.18781765090814054,"55":-0.05833251278866578,"56":0.1791172953292767,"57":0.1987476435520754,"58":-0.07551988975613842,"59":-0.18166493313472723,"60":-0.18916900501272244,"61":0.01066800913218441,"62":-0.2714931120141542,"63":-0.2626545377445313,"64":-0.09892877631882407,"65":0.24363852179160214,"66":-0.06070389689200352,"67":-0.030642858528033508,"68":-0.19649518043000402,"69":0.15011296633769095,"70":-0.3245383897217194,"71":-0.0779565531281695,"72":0.0516691309897216,"73":0.15150887241815847,"74":0.1660801339023951,"75":-0.014740909626818,"76":-0.012081552147140804,"77":0.07504961075595239,"78":-0.25330721936167905,"79":0.15880720750374072,"80":-0.06748389212789423,"81":-0.058036244438040466,"82":-0.09876884827432952,"83":-0.08981355705898453,"84":0.07911107790628684,"85":-0.09790446349133819,"86":-0.11057043289998249,"87":0.016406915334981613,"88":-0.09542257113471991,"89":0.05548741059963306,"90":-0.07289807386135143,"91":-0.07793961808089298,"92":0.10233043247019476,"93":-0.34444683673574944,"94":-0.34550447031267406,"95":-0.09876789963996639,"96":-0.011346805889561207,"97":0.04744606378910492,"98":-0.017813426802431167,"99":-0.08160005730673858,"100":-0.06513736871245569,"101":-0.03632334269902098,"102":-0.20009155410872065,"103":-0.36697019715146706,"104":0.18475161525608758,"105":0.09361882850158851,"106":-0.14048258698509736,"107":-0.21700326775316994,"108":-0.06189562876659861,"109":0.2559441307457449,"110":-0.2815875839228362,"111":-0.17807798628968272,"112":0.041822163389011,"113":0.2745338692307412,"114":-0.09397596278698808,"115":-0.15178923846918624,"116":-0.05648609815418807,"117":-0.06108245988406956,"118":-0.1892190160714577,"119":-0.08804439890378316,"120":-0.01935467069489403,"121":0.03456417829728859,"122":-0.08524669694764939,"123":-0.08737392054379851,"124":0.07635427825247093,"125":-0.11736835557790554,"126":0.00435928226617264,"127":0.017279239746419053,"128":-0.12817787494416033,"129":-0.09026905854949786,"130":0.03710190547247651,"131":-0.12581916320369338,"132":-0.08477621503686422,"133":-0.0676688171617105,"134":0.05182118840201605,"135":-0.009520501725689355,"136":0.07288008105031502,"137":-0.14500006688097847,"138":0.18268931098789573,"139":-0.18450953886875315,"140":-0.05910407308678126,"141":0.003975856224338101,"142":0.08006084187791442,"143":-0.19306261870454328,"144":-0.010098018540035128,"145":0.04211625832628251,"146":0.21978271661282553,"147":-0.27970930162792607,"148":0.04405796274956978,"149":0.013736647118736749,"150":-0.14094043340097573,"151":-0.0363640670732079,"152":0.09488537721570482,"153":-0.006461183919174054,"154":-0.061070815204051755,"155":-0.23493176970413063,"156":-0.03642030178411153,"157":0.0369658059001411,"158":-0.07640438118055261,"159":-0.028477210474868682,"160":-0.0969345781883686,"161":-0.12630541814382576,"162":-0.09598782000546081,"163":-0.05366288048243375,"164":-0.005985574570336738,"165":-0.06882293449320828,"166":0.13753321109267216,"167":0.11067100457599477,"168":-0.13964644575658453,"169":-0.08850653918345647,"170":0.00032860469568393074,"171":-0.15244113634084883,"172":-0.04304170705863777,"173":0.09518207359191024,"174":0.2215938964690344,"175":0.07351388198854959,"176":-0.008876620304129602,"177":0.06190977620984353,"178":0.10850918888344907,"179":-0.0847112244822131,"180":0.23281587825048441,"181":-0.03479235306603195,"182":0.055086647195014556,"183":0.1468139954298624,"184":0.02236448278281962,"185":-0.2086183526084455,"186":-0.0017694306829244937,"187":-0.24877028497370723,"188":0.16702385678442366,"189":0.009738250629241677,"190":0.12315303177775948,"191":0.01744860894583702,"192":0.10924600251485544,"193":-0.0056517252160195,"194":0.06383525904313417,"195":-0.17649821146667952,"196":-0.010789711335616523,"197":0.03892668090807439,"198":0.07733481316980004,"199":-0.006125688037982845}},{"sx":5,"sy":5,"depth":8,"w":{"0":-0.005507117539202012,"1":-0.02338583140259859,"2":0.010229769649431666,"3":0.06489029256016221,"4":-0.11566825979965181,"5":-0.06498200788246657,"6":-0.1692520837771478,"7":-0.08623165765423936,"8":-0.06562136332025112,"9":-0.14734495478477916,"10":0.011434590592870213,"11":-0.1270244761591954,"12":-0.163104963298515,"13":0.12071433295511996,"14":0.14860752671140648,"15":-0.05482606167109479,"16":0.03466037693618343,"17":-0.07987554414050395,"18":0.009489024982028853,"19":-0.18363432661924875,"20":-0.07640373484556025,"21":0.08647160501857164,"22":0.05694514386005483,"23":-0.12758314289003472,"24":0.0838717235754017,"25":-0.12370534235760612,"26":0.029449585319374014,"27":-0.25040617776171376,"28":0.2320030932859945,"29":0.04099699239103031,"30":0.06655001606087822,"31":-0.039265733980512474,"32":-0.0016052057752092294,"33":-0.049500714586562904,"34":0.028116909919739037,"35":-0.2559389959198681,"36":-0.036958879616474406,"37":-0.02505363062783015,"38":-0.06796877853952814,"39":-0.11718315450137594,"40":-0.10391107533713126,"41":-0.022658507215977654,"42":-0.05985610866337991,"43":-0.21045148727251842,"44":-0.05486022338875653,"45":0.0018222207627045647,"46":-0.07259675523264253,"47":0.006990238155841455,"48":-0.15457586445504262,"49":0.057121819490321704,"50":0.07159743659115982,"51":-0.19034003059157914,"52":-0.19833609544242878,"53":0.0534628686361375,"54":0.21730458647883802,"55":-0.1821313478243344,"56":0.02617600836894699,"57":-0.03251793624958268,"58":-0.08220170821286131,"59":-0.20396848533028644,"60":0.2325648864136118,"61":-0.03448372331552547,"62":0.07129948320272855,"63":-0.22017552965528486,"64":-0.11336183265576044,"65":0.06187339478083451,"66":-0.013596597158935938,"67":-0.10907414158949928,"68":0.08584481377444106,"69":0.05229442570075382,"70":0.3160439534308695,"71":-0.07449122924341622,"72":-0.05225356337597355,"73":0.006711669328949108,"74":-0.12250235971595937,"75":-0.04008913424879603,"76":-0.03868811964313517,"77":-0.1533959278458325,"78":0.08413385904742386,"79":0.16597881519899613,"80":-0.1918697914191336,"81":-0.06694696252728094,"82":-0.005077125280115721,"83":-0.1293129810774518,"84":-0.1781161281404543,"85":0.010482307835680545,"86":0.20013373944769255,"87":-0.0779225655845532,"88":0.0320179751861739,"89":0.0037673169038157776,"90":0.19812581815654026,"91":-0.10090651967829235,"92":0.09073884332855613,"93":0.22073249751500237,"94":0.19543405095391383,"95":0.023313677500310413,"96":0.1122351174854915,"97":-0.029795776882284228,"98":0.07113252582976123,"99":-0.12454497402338573,"100":0.11732798079052623,"101":-0.028189778645304756,"102":0.09105601124875387,"103":0.08599854767095536,"104":-0.013854042174082207,"105":0.05208511249102375,"106":-0.08099685669609637,"107":-0.12235329143829762,"108":0.04712850894597718,"109":-0.2163489473157526,"110":-0.023793414911221413,"111":0.11431189633201262,"112":-0.12367785358729472,"113":-0.054258497095796276,"114":-0.26296024612704516,"115":-0.2789493928598306,"116":-0.13573687665260803,"117":-0.161879610518548,"118":-0.04058596610656569,"119":0.020592888093220088,"120":-0.01522104359146842,"121":-0.16556726062962762,"122":0.18193100520680602,"123":-0.2166077895404807,"124":0.08303436181633934,"125":0.1524883711706875,"126":0.26018430803764897,"127":-0.0107971571017836,"128":0.1676205825270954,"129":-0.07671310405659952,"130":0.17502026118026356,"131":-0.17230959806635346,"132":0.2013516353607582,"133":0.15128049173894223,"134":0.40465165037216755,"135":0.15629208900442093,"136":0.0294536176920385,"137":-0.03280106266486883,"138":0.004495385463729461,"139":-0.3041875868369002,"140":0.11071172123012875,"141":0.03771118378718957,"142":0.28177059950274075,"143":0.031993288551851906,"144":-0.06124005016025879,"145":-0.01494208923586869,"146":-0.37617648669221915,"147":-0.32628751150015917,"148":0.029703987625278126,"149":-0.25972394272230465,"150":-0.07656734573488334,"151":0.1821479731389217,"152":-0.2926767254877603,"153":-0.23658780086887782,"154":0.06226402269808814,"155":0.01169443839277038,"156":-0.254680946914847,"157":-0.2315829256185476,"158":0.02995409606102324,"159":-0.003437146556780084,"160":0.11938456957793471,"161":-0.09925114257428835,"162":0.21761367020880726,"163":-0.14327440133288588,"164":0.14014503590991265,"165":0.3353320474696234,"166":0.17092899546789547,"167":0.3129168932894579,"168":0.16965929491114687,"169":-0.17731831799883296,"170":0.09523978392365696,"171":-0.1512383079138741,"172":0.11893589591104928,"173":0.13084644193986664,"174":0.2798431820371824,"175":0.0256068201548357,"176":0.05735939894969392,"177":-0.05875145415078598,"178":-0.0509841132196455,"179":-0.30719023542176827,"180":0.06988720223180792,"181":-0.08464020076968407,"182":-0.005239223467767576,"183":0.12654142609338262,"184":-0.2036890682820236,"185":-0.17966410964685245,"186":-0.13634797652324704,"187":-0.13860469558031813,"188":-0.09433432428557847,"189":-0.08820499058989499,"190":-0.1384457617493753,"191":0.03039805371390844,"192":-0.22596953408822484,"193":-0.07759758408311278,"194":-0.07195676285625174,"195":0.004707669899669183,"196":-0.13682202914544975,"197":-0.09968954657920642,"198":-0.05767184480932534,"199":-0.130174201479005}},{"sx":5,"sy":5,"depth":8,"w":{"0":0.0002145599306853019,"1":-0.06094802597431059,"2":0.10115729811301628,"3":-0.1843690226228485,"4":0.2074344208273234,"5":0.007692926393278359,"6":-0.012133639643091153,"7":0.09588078997557971,"8":-0.10749701749974704,"9":0.03223522112520374,"10":-0.14928082148248456,"11":-0.0008248136364577918,"12":0.23491901731456574,"13":-0.08947233763042964,"14":-0.11779361965430188,"15":0.06329392602288518,"16":0.04223266021733627,"17":-0.0955510176686472,"18":-0.060484149579346135,"19":-0.3133649111259674,"20":-0.24980191386488101,"21":0.1955505641923069,"22":0.03672286321037752,"23":-0.22499212312361927,"24":-0.10919987831076125,"25":-0.04072775189059191,"26":0.0022752366912053264,"27":-0.17630410802487614,"28":0.15005304348583198,"29":0.10043588525642129,"30":0.02125210582528277,"31":0.12208269970562816,"32":-0.13814970007586844,"33":0.05584835440318761,"34":-0.015010921219452507,"35":-0.17560752206541555,"36":0.16244986517432655,"37":-0.08227636390205316,"38":-0.11227035841393102,"39":0.13840875288291368,"40":-0.018374211294621714,"41":-0.1374531488841296,"42":-0.10091028448550991,"43":-0.22973520784603968,"44":0.2657583445912297,"45":0.04214633326329302,"46":0.05499977166833398,"47":0.054906633024043854,"48":-0.13046432036747346,"49":-0.00942215582819835,"50":-0.15698545468268119,"51":-0.17738596928857855,"52":0.2691593126288073,"53":-0.08191092657596993,"54":-0.19993920085951858,"55":0.33294160266533485,"56":0.04966355775269169,"57":-0.008437001782891983,"58":0.02651566652566652,"59":-0.23403164506654625,"60":-0.34163138088227685,"61":0.36863684980935707,"62":0.34303009048801036,"63":-0.2722332756074763,"64":0.005742636207829901,"65":-0.06808021011606934,"66":0.09854004886438346,"67":-0.3816875194883868,"68":0.14187852661536698,"69":0.11142080509517194,"70":0.06905858016384638,"71":0.24986439749076644,"72":-0.072718979151374,"73":-0.0739234937841586,"74":0.0271908160235686,"75":-0.20175288809248682,"76":0.02390561090116106,"77":-0.2306498990651013,"78":-0.19996947009473046,"79":0.2022666784159403,"80":-0.12427459206777132,"81":-0.06094893143760835,"82":-0.17225620981899203,"83":-0.07358523052493919,"84":0.17568446844072477,"85":-0.12701466014362106,"86":-0.13885406803840414,"87":0.15300165485154105,"88":-0.046357373503288196,"89":-0.05533551619969601,"90":-0.20777988059647678,"91":-0.0722822054461536,"92":-0.07546773475544728,"93":-0.2266989082445131,"94":-0.06265883256108487,"95":0.21459215847238247,"96":0.20938877752369742,"97":-0.08168882114656158,"98":0.04237545747742071,"99":-0.1707953086779799,"100":-0.23702428997365566,"101":0.24058429506360376,"102":0.27509636392862286,"103":-0.17292012952291164,"104":0.05196207172521982,"105":0.02054711450314985,"106":-0.0930259180775001,"107":-0.29519207861684577,"108":-0.04124001984909897,"109":0.16786880580808844,"110":0.2234046921234898,"111":0.07008721323744908,"112":-0.29436542739462956,"113":-0.15438734963790238,"114":-0.1068217112346707,"115":0.002339582456585101,"116":0.018146447313661777,"117":-0.23539065664922368,"118":-0.21709771082640353,"119":0.21726097427071625,"120":-0.21644151599117753,"121":0.11158844189984304,"122":-0.00515035386955519,"123":-0.15734060036610756,"124":0.07476213320383027,"125":-0.16648036163402125,"126":-0.08781493713802309,"127":0.09869123528669359,"128":-0.18460775671739177,"129":-0.12180439419586654,"130":-0.13092279361498224,"131":-0.10880646331382658,"132":-0.07598199098067962,"133":-0.04251851037649199,"134":-0.08578794653004883,"135":0.09204201910545079,"136":0.16856065459279918,"137":-0.022036297057646852,"138":0.03129580372847294,"139":-0.14330753508149655,"140":-0.03304174432048977,"141":0.24460756122011326,"142":0.10516196984934038,"143":-0.06221160759102308,"144":0.19238074972178512,"145":0.07337680660199988,"146":0.06303651785990602,"147":-0.1623843727570695,"148":-0.13938131357798272,"149":0.07745794749310286,"150":0.17955904553975158,"151":0.1076908359691889,"152":0.051013305947153725,"153":0.1413403363300082,"154":-0.17879408007442676,"155":-0.021736591926944805,"156":0.059484288585648123,"157":-0.06873424062573773,"158":-0.25484501226839645,"159":0.19161587395005428,"160":-0.1787896704293591,"161":-0.0724020182046521,"162":-0.03235799028986626,"163":-0.1830502400523802,"164":-0.02759891100744602,"165":-0.03455822676103734,"166":0.013988227162307545,"167":0.15076951654425771,"168":-0.10745521503313459,"169":-0.29975475293421006,"170":-0.04210547219078043,"171":-0.13626127541231975,"172":-0.04196887062930155,"173":-0.06660525863004632,"174":-0.07048352848171656,"175":-0.14239391174211224,"176":0.07581773357649668,"177":-0.14615720120623066,"178":0.04283180616263309,"179":-0.09865692611326589,"180":0.04007802732742971,"181":-0.04279129485214901,"182":-0.06822271913068742,"183":-0.11677040829231677,"184":0.1150811917826597,"185":-0.0350194068784579,"186":0.025964424320285253,"187":-0.25145055177209363,"188":-0.03893454968516286,"189":0.018676666134852974,"190":0.21571988294971356,"191":-0.10358106390862144,"192":-0.0046752519009202334,"193":0.035153849442300884,"194":-0.13093449720514935,"195":0.15634475155857755,"196":-0.046566570059079104,"197":0.08713028385860712,"198":-0.17971528843481105,"199":-0.020660886373433104}},{"sx":5,"sy":5,"depth":8,"w":{"0":0.028290906706985357,"1":0.09811214813138457,"2":0.06606068902200579,"3":-0.08021584727442871,"4":-0.18266305207502692,"5":0.1609953747691674,"6":0.12149914672018158,"7":-0.05036230852504279,"8":-0.011039462770181275,"9":-0.013612632168046002,"10":0.01739253763815747,"11":0.17956689529983777,"12":0.0629737042520342,"13":0.005543930379253524,"14":0.05676370461024298,"15":0.14733206321336123,"16":-0.0362435328482621,"17":-0.12953886550552748,"18":0.051589773070839014,"19":0.09747744216190095,"20":0.11728454142406812,"21":-0.131509066685262,"22":-0.04581134533971261,"23":0.06953954624792145,"24":-0.010302389266534519,"25":-0.14890568474931873,"26":-0.15241785760099325,"27":0.017703018519599795,"28":0.0128477998475867,"29":-0.27184673679573396,"30":-0.22391582601970336,"31":-0.05021946475045613,"32":-0.004011434359206708,"33":-0.09753047931315618,"34":-0.18215323374384051,"35":-0.058587089183102806,"36":-0.18944020075872087,"37":-0.023739691130779762,"38":0.004591681916004982,"39":-0.01749984057408463,"40":-0.0349779915507552,"41":-0.031129841391697756,"42":0.016960729653435105,"43":-0.06807833247351264,"44":0.08306092338477167,"45":-0.02302866434401938,"46":0.1206321195377656,"47":0.01974218996139268,"48":0.004984056499797034,"49":-0.004395299591600577,"50":-0.04529907781502847,"51":-0.1748179923031309,"52":-0.0136103818817626,"53":-0.034115332187701936,"54":0.014585016874437648,"55":0.15207727776020968,"56":0.003855966910425526,"57":-0.08317741530214405,"58":-0.03908878228861427,"59":0.017629717231119384,"60":0.14574066822360904,"61":-0.07820134740655339,"62":0.0081777135802905,"63":0.01837938923396021,"64":-0.1172571476663126,"65":-0.11538983703116014,"66":-0.09975359036355234,"67":-0.009497413549650953,"68":-0.22409546095149624,"69":-0.16500065095703226,"70":-0.1836876294299778,"71":-0.04194710426394949,"72":-0.058811484926614824,"73":-0.23273015429720753,"74":0.09744313511544667,"75":-0.21427583641191092,"76":-0.1910612196019419,"77":0.05066225036444025,"78":0.21272290176021644,"79":-0.038585067576957316,"80":0.04328379085947186,"81":-0.10685304399186457,"82":-0.09673398302561634,"83":-0.21142281776691782,"84":-0.11886256999372027,"85":-0.02102632884625999,"86":-0.029488335356699036,"87":-0.1573863795877677,"88":-0.13808519758885157,"89":-0.01989047035245811,"90":-0.03232912839306084,"91":-0.15238129937127176,"92":0.026423896589938788,"93":-0.1466918655476512,"94":-0.006434995259049876,"95":0.11576415388487475,"96":-0.1045608066404333,"97":-0.007646781287691447,"98":0.007251696880510667,"99":-0.05914965048013887,"100":-0.12790901254624157,"101":-0.1204791332130876,"102":0.015430597859218333,"103":0.020212050208052508,"104":-0.0213754795964018,"105":-0.25238535284185265,"106":-0.17807661255306573,"107":-0.08282841468067165,"108":-0.06857185475734738,"109":0.020727592210539495,"110":0.11688164045166216,"111":-0.06889190781655896,"112":-0.09536828879877944,"113":-0.17025991127075088,"114":0.1502273272236698,"115":-0.138178702955938,"116":-0.004002499639868603,"117":0.15388115894940865,"118":0.2064060885216734,"119":-0.07723861606200645,"120":0.015411808441672194,"121":-0.17049963565164714,"122":0.1231688910541088,"123":-0.07626022488392074,"124":-0.0038074277933293327,"125":-0.0007634656983130832,"126":0.056974159479873436,"127":0.09475024739807311,"128":-0.0538347807630294,"129":-0.12920170176980722,"130":0.04055748275285944,"131":0.00381321788143518,"132":0.11534532422574147,"133":0.020279232465315995,"134":-0.11265537228321892,"135":0.062351634982095505,"136":-0.04662339029236556,"137":-0.16710498027463175,"138":-0.1631076048740631,"139":-0.23751158163079683,"140":-0.02535709881261106,"141":0.013549448770676577,"142":0.054560523859537975,"143":-0.14080183937907095,"144":0.010284156981744612,"145":-0.24189649048360026,"146":0.12934045192060478,"147":-0.20760631679318953,"148":-0.05152744997224514,"149":0.08939966551341974,"150":0.018925753458613977,"151":-0.10125952666989384,"152":-0.04538827575766616,"153":-0.07148152793654118,"154":0.21898679138317328,"155":-0.18421931308588196,"156":0.062136813990862474,"157":-0.011155067198221772,"158":0.13882458446636914,"159":0.010494865916698503,"160":0.09265226977103061,"161":-0.005761767356358163,"162":0.16350130294929333,"163":-0.004929347697837564,"164":0.11054672194072497,"165":0.07968120389744339,"166":0.05653487613395023,"167":0.012308663666803298,"168":0.06765558674968222,"169":-0.05209087505352653,"170":0.022850314219955325,"171":-0.14487722106900994,"172":-0.06659543824363605,"173":-0.00996491645444257,"174":-0.02154275040974508,"175":0.13009518737004389,"176":0.0334919646575186,"177":0.031124483949688392,"178":0.20443301574141395,"179":-0.14212193834073805,"180":-0.03832439344170223,"181":0.064559167027022,"182":0.04752213267700204,"183":-0.18458136219323806,"184":0.15441424601285209,"185":-0.13096964205868694,"186":0.17294010980254332,"187":-0.15373725767733473,"188":0.24210877961541633,"189":0.1471580427845484,"190":-0.04570166930735913,"191":0.09755978870809975,"192":0.04830349753580258,"193":-0.07476210157807568,"194":0.16575805964378298,"195":-0.26470971008666666,"196":0.1202568767614728,"197":0.06379114976530074,"198":0.11924568765501803,"199":0.13319447137912033}},{"sx":5,"sy":5,"depth":8,"w":{"0":0.10920469758603688,"1":-0.037998220740629994,"2":-0.039532333953400514,"3":-0.03879576146669692,"4":0.13426295473727873,"5":0.006516774019066858,"6":0.03185326848966218,"7":0.022835236028527994,"8":0.03457758187541946,"9":0.06227063982216679,"10":0.13354040412085766,"11":-0.23651358793908914,"12":0.09799204769845733,"13":0.05127632577571767,"14":0.16840924692047435,"15":0.07628310423341238,"16":0.006827767389404578,"17":-0.05412460264503067,"18":0.07339441388012001,"19":-0.06836667169227695,"20":0.06778552830946016,"21":0.21505850908154417,"22":0.02974080217892331,"23":-0.04123439894550519,"24":0.08290617562186481,"25":0.05904184023954372,"26":0.051854356524264025,"27":-0.06548573396547315,"28":0.07130415096538328,"29":0.036328625607391696,"30":0.04051132989792246,"31":0.06777491306641671,"32":0.07845557407192057,"33":0.03440766225036002,"34":0.12095779408194171,"35":-0.22251818964983044,"36":0.07201965766640897,"37":0.25264327568494627,"38":0.08752948713051371,"39":0.08547369105880463,"40":0.004672492533719671,"41":0.13499813529188598,"42":-0.03307621250118727,"43":-0.025373908818079143,"44":-0.06671553549932746,"45":0.06529650493400285,"46":-0.06298581199809491,"47":-0.09480484861282482,"48":0.057480877067134846,"49":-0.01825352993549721,"50":0.07353315067303332,"51":-0.12391043949677928,"52":0.09286591171358763,"53":-0.030220147281140104,"54":-0.05509593440490058,"55":-0.12474835986908385,"56":-0.0202823526692246,"57":-0.013837249494868146,"58":0.05267432952063307,"59":-0.13457698416657227,"60":-0.0011006628613496,"61":-0.04726278277728963,"62":-0.0581700333115376,"63":-0.09936848558838889,"64":-0.04116711386582048,"65":-0.02358338783467669,"66":0.04458480025408965,"67":-0.1158710393131325,"68":-0.11943942731370943,"69":-0.05255026238069103,"70":0.09523530911399417,"71":0.02402900437858923,"72":0.06788513283510654,"73":0.03572951809727722,"74":0.23503365245954477,"75":-0.09565014217076133,"76":-0.08104289228342654,"77":0.23990055775820956,"78":0.11226679548618686,"79":0.0678379629784678,"80":-0.03454804123429159,"81":-0.06119264369355,"82":0.04982771205579296,"83":-0.013623175787761135,"84":-0.15366469568832375,"85":-0.09147519011640054,"86":0.024814535251170573,"87":0.011706744342879676,"88":0.01517752572351525,"89":0.06350695765829799,"90":-0.013975008791882208,"91":-0.11303863167799698,"92":-0.028187541514347145,"93":0.06425538850037155,"94":-0.09870523199759285,"95":-0.038523044688727165,"96":-0.03457040955325244,"97":-0.06892924762233157,"98":-0.14551236899641076,"99":-0.0759855007510897,"100":-0.03424111878476896,"101":-0.10774335789174933,"102":-0.28270388059455986,"103":-0.0192715279283171,"104":-0.06210118120286,"105":-0.05641692493026737,"106":-0.09647742191651539,"107":-0.10220735319930511,"108":-0.033936465011441756,"109":0.0876444370949743,"110":-0.15153599936210135,"111":-0.14833642556852764,"112":0.22897708420329368,"113":0.012671750961936684,"114":-0.06336949085181925,"115":-0.06344981241956013,"116":-0.14505281014900503,"117":0.31610952766204853,"118":0.003915672135934588,"119":-0.21065030890857747,"120":-0.018013415279562905,"121":-0.006469018902852485,"122":-0.07151873403034252,"123":0.030002802859303037,"124":-0.12026354040281638,"125":-0.0166337923824807,"126":-0.11989849492307895,"127":-0.04462442906587911,"128":-0.05252706653500583,"129":-0.03853186775468471,"130":-0.004540511400697458,"131":-0.03204659058343521,"132":-0.14413319937740626,"133":-0.11455529753511633,"134":-0.0524149103988893,"135":-0.03608663008332245,"136":-0.10635969243401766,"137":-0.062486905012075315,"138":-0.12197999210196371,"139":0.03542876198725003,"140":0.043704144177750176,"141":-0.016687888580395147,"142":-0.10855420532682898,"143":-0.019231415378911362,"144":-0.16872853994745293,"145":-0.13852285725156024,"146":-0.050514740397372034,"147":0.024839743206087672,"148":0.04672224552623189,"149":-0.21170991898059877,"150":-0.25508263450649254,"151":-0.06478179129474163,"152":0.1913566068078143,"153":0.07158478287442915,"154":0.05936492860894286,"155":-0.07462386493651745,"156":-0.09517894889090597,"157":0.3559820532257215,"158":-0.07479524684244068,"159":-0.23189450429798447,"160":-0.08723785075270453,"161":-0.1411675145581121,"162":-0.12328150417943824,"163":0.04472415853345605,"164":-0.06736647005744091,"165":-0.07009180150631676,"166":0.08441756944684813,"167":-0.02393059905559712,"168":0.03331706468677747,"169":-0.0012224961910367437,"170":0.055459048695828635,"171":0.003436454145211117,"172":-0.07206685093660259,"173":-0.18051150509345099,"174":0.007005986968275767,"175":0.04282578977261374,"176":-0.141724206469204,"177":-0.1580114823092436,"178":-0.0183292650917869,"179":0.06581430416459619,"180":-0.005067535620584637,"181":-0.02153465656228123,"182":0.094615515385597,"183":-0.041224329085075374,"184":-0.16593744628285864,"185":-0.2367279241167121,"186":-0.08279385747529372,"187":0.007013178670202248,"188":-0.07264888821860734,"189":-0.15528165645924344,"190":-0.15511646827180536,"191":0.14856116731732613,"192":-0.057230758505186746,"193":-0.1511666080605844,"194":-0.041969730062632014,"195":0.13431383603588706,"196":0.005085676345378473,"197":-0.077312631331578,"198":-0.1208113035457182,"199":-0.05068913802087194}},{"sx":5,"sy":5,"depth":8,"w":{"0":0.07235587284714977,"1":0.054158223435745764,"2":0.03643627052839451,"3":-0.056298934919611576,"4":0.028848351006584352,"5":0.0791722197667875,"6":0.05808297522707262,"7":0.13293420449665544,"8":0.043422527404436605,"9":0.11879956246907034,"10":0.022641771060244627,"11":-0.10468607252328142,"12":-0.035372644135800026,"13":0.07428835798330576,"14":0.025499677094203872,"15":0.05089643914104329,"16":0.09051780745939161,"17":-0.010287191335749618,"18":-0.07188822689504237,"19":-0.124386346634429,"20":0.006877240253993816,"21":0.00712081284124595,"22":-0.0630409726540242,"23":-0.10769825599249053,"24":0.14402291433640296,"25":0.003324626086872753,"26":0.01859206745280958,"27":-0.06213364887620142,"28":-0.046452719697216975,"29":0.10057106418612978,"30":-0.16870789206580386,"31":-0.1916516984685013,"32":0.07103818476644788,"33":0.05733042312628032,"34":-0.0034021614374407706,"35":-0.20771132969437991,"36":-0.054303144347396526,"37":0.2364166396761169,"38":-0.19296089920797077,"39":-0.09149719424488192,"40":0.06316105325481988,"41":0.04088543979175403,"42":-0.15393786494678238,"43":-0.09548879924342422,"44":-0.19974149361010035,"45":-0.07320397112983829,"46":0.05688463435153481,"47":-0.10610592355080711,"48":0.07317019715978064,"49":0.21544682923303365,"50":0.07808454599798717,"51":-0.08655259196267194,"52":-0.15957530872822592,"53":-0.02191241074738495,"54":-0.23584999439094212,"55":-0.18503493250290842,"56":-0.06156989250172366,"57":0.22516238921431433,"58":0.003948570060698682,"59":-0.08521009306305401,"60":0.06736796654139193,"61":0.09722751604398085,"62":-0.22978585161108858,"63":-0.08283730329180657,"64":0.08386561944000646,"65":0.2215427926034656,"66":0.060970969152912384,"67":-0.26066377300707366,"68":0.08172377707229198,"69":0.13212006477569974,"70":-0.21685291855924144,"71":-0.19219491079464848,"72":0.13939955787180908,"73":0.06434370755921896,"74":0.10392686848597954,"75":-0.2598336569228519,"76":0.024509591326216152,"77":0.13950315211065717,"78":-0.0527218648291702,"79":-0.11173793360526312,"80":-0.19052261001669274,"81":-0.024168696543728357,"82":-0.11195826560729762,"83":0.1176228191303454,"84":-0.2014055565250368,"85":-0.19543345075101257,"86":-0.09914904657129213,"87":-0.2670623273884453,"88":-0.12223952466277345,"89":0.005571858418797678,"90":-0.14568390352939997,"91":0.11180052439340363,"92":-0.14129535805139815,"93":-0.14719745335068968,"94":-0.15288594553526666,"95":-0.2070741626746327,"96":-0.02504498055409796,"97":-0.13500257803692126,"98":-0.202421681311772,"99":-0.08759715525268094,"100":-0.17748899302038615,"101":-0.1368966154421389,"102":-0.21072245753370752,"103":-0.2600066764197151,"104":-0.17563640331891336,"105":-0.009552492910921317,"106":-0.03803226852798173,"107":-0.17646113549666936,"108":-0.08984460056962491,"109":-0.06986789446057383,"110":-0.08782463977763458,"111":-0.06168877089000079,"112":-0.09932433914299633,"113":-0.0825411372073628,"114":0.03609168875954355,"115":-0.36042924506683993,"116":0.11373167396241353,"117":0.00015065032646201443,"118":-0.05909773480967743,"119":-0.07228525541161193,"120":0.047369206204511946,"121":-0.293394446051794,"122":0.1102570831265052,"123":0.027429664169492874,"124":-0.08724082944491895,"125":0.0008815179886756393,"126":0.34430869711725975,"127":-0.12731640420675194,"128":-0.0072261360459656985,"129":-0.3228321024955616,"130":0.14091735979343087,"131":0.15108007676325144,"132":0.008964300352372655,"133":-0.017983509434170875,"134":0.1697511410462529,"135":-0.021467006434541736,"136":0.13386365859797678,"137":-0.16901299741626313,"138":0.2628394656707579,"139":0.0800747202596884,"140":-0.07040992719905818,"141":0.010963502780156311,"142":0.060907742054465,"143":-0.016590514030954632,"144":0.027653625299079186,"145":-0.2624195033539105,"146":0.10477064851014387,"147":-0.036972784719715164,"148":0.1146126389272613,"149":0.08340614008190175,"150":0.011944528807351851,"151":-0.14809039771460197,"152":-0.18088331757040088,"153":-0.057783767643378794,"154":0.18444334825310407,"155":-0.20137749928879745,"156":0.08764200237259136,"157":-0.09098655929679897,"158":0.0011576999074010034,"159":-0.03244536778131349,"160":0.023174475355734345,"161":-0.05971310653905135,"162":0.16992661402670176,"163":-0.08163695588541549,"164":0.08519839731519249,"165":0.1146602881718318,"166":0.5384828867923418,"167":-0.002629886656737766,"168":-0.004866343941031675,"169":-0.06316686843195626,"170":0.07831637119130633,"171":0.17910408161378483,"172":0.1232771560426597,"173":0.20642741849993584,"174":0.23255087062335827,"175":0.14627190887125616,"176":-0.024407719781594672,"177":-0.07896391735312372,"178":0.060344663432549475,"179":0.11318089199961559,"180":0.04190573748736045,"181":0.02558280791846048,"182":-0.0006247049618550632,"183":0.054644123600696315,"184":-0.060100209768916654,"185":0.04032950925366192,"186":0.05706850026854548,"187":-0.00754425750162533,"188":-0.21054530736512694,"189":0.04931598668813199,"190":0.0845706504847478,"191":-0.07627637590766786,"192":-0.0667539704383457,"193":-0.05207369130286942,"194":-0.052228868055274345,"195":-0.0688892866984159,"196":-0.004522543512438117,"197":-0.08273174985789615,"198":-0.08387274750778644,"199":-0.07178528910347871}},{"sx":5,"sy":5,"depth":8,"w":{"0":0.06852908156142629,"1":0.04816928820856268,"2":0.1279306662674965,"3":-0.10640327698242526,"4":-0.011430357632556249,"5":0.03289330143344564,"6":0.12345525201246879,"7":-0.009831028410005398,"8":0.0625742623847242,"9":0.07789216628590796,"10":0.149483668808104,"11":-0.20798081047330705,"12":0.021878760143163974,"13":0.005100891145329228,"14":0.005452374283441225,"15":-0.03624988414081056,"16":-0.1483116348856903,"17":-0.03892855970379479,"18":-0.07032334381540413,"19":-0.035583636352160074,"20":0.16657178237266335,"21":-0.09442848432841475,"22":-0.11803607772932757,"23":-0.06836988164116381,"24":-0.06656438334823978,"25":0.051244485925680455,"26":-0.08955471007935938,"27":-0.09509656968439113,"28":-0.048189168117673195,"29":0.006430585615923674,"30":0.09352466874870884,"31":-0.06016376533582429,"32":0.009178541721893169,"33":-0.017477619798578328,"34":0.12084500910043691,"35":-0.25896976289566387,"36":-0.1064261914359848,"37":0.13560619360403325,"38":0.14363869952853928,"39":0.0023604809796016414,"40":-0.03678880600458954,"41":-0.013673690159634263,"42":0.04524599108576982,"43":-0.034229011192123036,"44":-0.045527821200119,"45":-0.029646775680298634,"46":-0.06477132976325393,"47":-0.05401755302721364,"48":0.013401804435725445,"49":0.01568174330629865,"50":0.03911794193120975,"51":-0.13220559077256447,"52":0.009370177860802516,"53":-0.0779663640652108,"54":-0.17346659587260838,"55":0.09938405270486246,"56":0.08665792086290112,"57":-0.037074613608415165,"58":0.020170726115022207,"59":-0.2080644517801597,"60":-0.06707280615060174,"61":-0.09798854150039216,"62":-0.06934532274900372,"63":0.00020865607680912535,"64":-0.019083167993910553,"65":0.0023214365715383766,"66":0.021973198468329243,"67":-0.11035832334414303,"68":-0.26544836058510335,"69":0.06716575368664675,"70":0.16470878126613492,"71":-0.20640924129825478,"72":-0.0011875637839462048,"73":-0.05350197060563338,"74":0.03982304198195888,"75":-0.1567498496866796,"76":0.10050609284457553,"77":0.06290633635883239,"78":0.01265409711860813,"79":-0.04239355605694326,"80":-0.02945403810642369,"81":0.06538261840012063,"82":-0.14644845104042675,"83":-0.127542671441026,"84":-0.03825932017409934,"85":-0.14937024910899357,"86":-0.15533232395403204,"87":-0.007008698015666556,"88":-0.13110252497486863,"89":-0.0973031128686048,"90":-0.16962008680670848,"91":-0.07358594177877566,"92":-0.12254633714984937,"93":-0.07713341665533424,"94":-0.01463381306324441,"95":-0.08217263400271439,"96":-0.06639834222819681,"97":-0.10150701815648147,"98":0.08446227196967096,"99":-0.23352908184924406,"100":-0.10761990565249328,"101":0.06157331667267089,"102":0.004732470858958867,"103":-0.1929054168785691,"104":0.02975995124902134,"105":-0.010437508860511436,"106":-0.10995041073526823,"107":-0.12637241677300376,"108":-0.031831084152551134,"109":-0.024082519328676437,"110":0.251025883335382,"111":-0.22131185756358202,"112":0.1408830718715034,"113":0.025480111581833657,"114":-0.0025780587745478332,"115":-0.20721315639850119,"116":-0.008367043681156757,"117":0.11859419395591192,"118":-0.09005059053485734,"119":0.02455745316749896,"120":-0.033171580894920345,"121":0.03789118661817646,"122":-0.053884180429934245,"123":0.1006502626597767,"124":0.03472722995150887,"125":-0.11626058867284257,"126":0.05560342060861823,"127":-0.009009113497005528,"128":0.042986823010218875,"129":-0.1180777311380256,"130":0.04553739947758623,"131":-0.051675657940422844,"132":0.042936343974360046,"133":-0.008150976804537085,"134":0.07239424124726719,"135":-0.031713077780335955,"136":-0.028882635348759404,"137":-0.188595790961276,"138":-0.07304446759254823,"139":-0.2548509498203161,"140":0.019903017477806813,"141":0.0759669695723903,"142":0.02843343185475694,"143":-0.15538318782786473,"144":0.00495378943002185,"145":-0.09850925084563533,"146":0.07567714838067366,"147":-0.20801397648853914,"148":-0.0716779238820518,"149":0.05848093386900031,"150":0.07213150670218123,"151":-0.2487123849883627,"152":0.03276166154159227,"153":-0.06216036376645205,"154":0.04576739581839198,"155":-0.13283865348775914,"156":0.0778067413089638,"157":0.02429200308902837,"158":0.07389603069676058,"159":0.13721038250605658,"160":-0.012205682755225118,"161":-0.24216847482396883,"162":-0.0064950061390080405,"163":-0.08440189473814935,"164":-0.07240145336045697,"165":-0.059992417436213655,"166":0.05352457854491789,"167":0.0025689070608392096,"168":-0.0018516232210089012,"169":-0.13120306535417695,"170":0.1578228478483608,"171":-0.14030149414617094,"172":0.08359309946295518,"173":-0.13224000359584004,"174":0.22973479872225028,"175":0.04358922237847179,"176":-0.028481582703619602,"177":-0.16851855577476568,"178":-0.037407807073590836,"179":-0.25974459484175455,"180":-0.11417346757833122,"181":-0.004446823565820926,"182":-0.02032704494016899,"183":0.08373230750272129,"184":0.1860597285927545,"185":-0.022258358787992247,"186":0.05307334585784093,"187":-0.3767965447441904,"188":-0.022680470346380106,"189":0.16397924580318715,"190":0.21265499701996685,"191":0.034383843058880224,"192":-0.10426125139310972,"193":-0.283833630654546,"194":-0.07744994114484402,"195":-0.1827463909990175,"196":0.006222825609643356,"197":-0.15425391078679304,"198":-0.09153370320923711,"199":0.0625916446738408}},{"sx":5,"sy":5,"depth":8,"w":{"0":-0.1545162008751714,"1":0.07328363840004987,"2":0.0313646821338566,"3":-0.07216148064143303,"4":-0.30918651186681395,"5":0.04487405459550252,"6":0.2860996056639004,"7":-0.27292811896459784,"8":-0.007096401525970816,"9":-0.3068241008030515,"10":0.2720888253499977,"11":0.11251603464621691,"12":-0.04412020378793103,"13":0.08550536078128677,"14":0.17606303371043006,"15":0.10668574914475669,"16":0.09074068818952902,"17":-0.16424286419854828,"18":0.09053308975502157,"19":0.01847272732531221,"20":0.12197472983209784,"21":-0.20918564693002384,"22":-0.02194606249265337,"23":0.13903302335125595,"24":0.00739918700761612,"25":-0.01299131580766143,"26":-0.07633716507812408,"27":-0.10844560997893593,"28":0.05350413242816857,"29":-0.05654107801410161,"30":-0.01802187350271344,"31":-0.00141277366648617,"32":-0.18749117891066097,"33":0.02853196849167669,"34":0.1329077198294149,"35":-0.12554227523783376,"36":0.034633217221713655,"37":-0.032960133472311366,"38":0.04459417830619385,"39":-0.05648120326107816,"40":-0.021154156651857166,"41":-0.09002192733917011,"42":0.3588049538490762,"43":-0.05529956520975655,"44":0.23906283964816444,"45":0.1246897058594968,"46":0.12833747841993198,"47":0.06102149304284811,"48":0.09559860952268674,"49":-0.09878299702695773,"50":0.06384961274730801,"51":-0.05747966129744944,"52":0.20094047046714245,"53":-0.000493407164106209,"54":0.09690567167819829,"55":0.2466434595363705,"56":-0.10883786661356173,"57":-0.011446010149788221,"58":-0.11715020047211289,"59":-0.21282991300608242,"60":-0.053041377382596164,"61":-0.026442066549144896,"62":-0.023666829430337568,"63":0.03822250221917498,"64":0.017998159046678893,"65":-0.13701712786083375,"66":-0.09787336977684673,"67":-0.13112077756282423,"68":-0.1546809190993784,"69":-0.0030334122700141947,"70":0.05630788775702658,"71":-0.1347527857645153,"72":-0.09940147900461017,"73":-0.20970572878778593,"74":-0.09778896552952197,"75":-0.05659259607461458,"76":-0.09224211377104749,"77":-0.2217406001800235,"78":0.038601171094012225,"79":-0.024112942005742866,"80":0.04168273617194859,"81":-0.04873531356905619,"82":0.2705088845820598,"83":-0.0014203312321199116,"84":0.2659817197153698,"85":0.15053885613723567,"86":-0.031848659760937675,"87":0.031445212113843324,"88":-0.3304509225835229,"89":0.03889066418332143,"90":-0.024885664433552793,"91":-0.11994360678532007,"92":0.08467609046642487,"93":-0.25051960105825516,"94":-0.0034216136785470653,"95":0.0440926509660162,"96":-0.22995222475508945,"97":-0.08598344327628271,"98":-0.1586640361049848,"99":-0.17514498564000963,"100":-0.27750572077462177,"101":-0.2886160591129532,"102":0.013808748895030245,"103":-0.052792367364342736,"104":-0.16518427958277715,"105":-0.2486991425491009,"106":0.07596367498449944,"107":0.004023958698226024,"108":-0.2333896470657934,"109":-0.09518003412377656,"110":0.003922923879873041,"111":-0.09254736541844898,"112":-0.15324995899047517,"113":-0.24809285095348696,"114":-0.10430261861161982,"115":-0.07836797540196662,"116":-0.11156627849227817,"117":-0.20695278178642937,"118":-0.17446406998676087,"119":0.15349139707153225,"120":-0.2698571519080693,"121":0.0285692785761163,"122":-0.17373999667706888,"123":-0.13296271751495511,"124":0.1375027246091195,"125":-0.10267729152512953,"126":-0.10820340612209536,"127":0.035577801929406364,"128":-0.10916136928030466,"129":-0.11942215022299756,"130":-0.05126074540803575,"131":-0.10798331426986436,"132":-0.26127391403436534,"133":-0.2920440872086105,"134":0.01342223048223098,"135":-0.0014363671897848801,"136":0.09425212442759559,"137":-0.3194075550797898,"138":-0.0646179037813872,"139":-0.13029959803161165,"140":-0.20898472975568191,"141":-0.07539052482166551,"142":0.21628023048319064,"143":-0.07707344684914431,"144":-0.04736762428951524,"145":-0.20361345707899198,"146":0.13876666520646663,"147":0.22926967758425848,"148":0.03928062334696871,"149":0.030036928016281522,"150":0.0566758283901805,"151":-0.022075612023179342,"152":-0.02804020466434506,"153":-0.20330354923568522,"154":-0.22381529627100755,"155":0.30907782057193084,"156":0.13760471128448482,"157":-0.21286263026824673,"158":-0.16633834254671637,"159":-0.05953853921673054,"160":-0.2624119873132075,"161":-0.12710781156622908,"162":-0.09330618634730109,"163":0.06247244068931421,"164":-0.16617865242423477,"165":-0.15708149757478287,"166":-0.12211437672271404,"167":-0.07679653715248687,"168":-0.010553360949434095,"169":-0.25708584186582717,"170":-0.13353440723477053,"171":0.02513119794731071,"172":-0.03367849607046776,"173":-0.021141295727645365,"174":0.10309572869064881,"175":-0.11419382450624851,"176":0.04038429632665087,"177":-0.047593821197403845,"178":-0.00276560861888299,"179":-0.02930572310399333,"180":0.04101966809783057,"181":0.027644229527256876,"182":0.2686402097649696,"183":-0.017627375881464905,"184":-0.21076507463061492,"185":-0.0327050417041918,"186":0.09305573662464475,"187":0.16480767862824156,"188":0.08645130784959468,"189":0.0054805712749333825,"190":0.10356688849462949,"191":0.32224588766014034,"192":-0.18932693780355586,"193":-0.04052849027838641,"194":-0.07823416011945433,"195":-0.054533179952146967,"196":0.0766585775430862,"197":-0.2282100862399163,"198":0.019942870325384478,"199":0.07315628037873141}},{"sx":5,"sy":5,"depth":8,"w":{"0":-0.13977407139602527,"1":-0.0326884456156369,"2":-0.13643928904340735,"3":-0.03368382054317701,"4":-0.0006334377202219243,"5":-0.18678111252355972,"6":0.06937996956235248,"7":0.10834636840750707,"8":-0.0898687767593869,"9":-0.07702489626873454,"10":-0.13363522308216735,"11":0.10074972849119035,"12":-0.12582041685665102,"13":-0.2316584075662994,"14":0.0275492400329255,"15":-0.008715116687481908,"16":-0.15348935872020253,"17":-0.1482449500302699,"18":-0.07685690104521195,"19":0.07495953879345346,"20":-0.11392367051266511,"21":-0.13127928270471126,"22":0.017556569347243013,"23":0.015298869960838454,"24":-0.07497565016204928,"25":-0.16250082503540503,"26":-0.016127737048830502,"27":-0.08534291199541051,"28":-0.06451230859537109,"29":-0.0004926530577151132,"30":-0.10505443846014578,"31":0.06559525663135328,"32":0.062406712089303616,"33":-0.06268951238977111,"34":-0.003211982733136713,"35":-0.11025495636895323,"36":0.013358145198540717,"37":0.22156615485766087,"38":-0.023723028759913126,"39":-0.0891704241393446,"40":0.04472218871704428,"41":-0.013986798332376555,"42":-0.07629001901462541,"43":0.17969551091089309,"44":-0.014081654087532001,"45":0.0009914447037543195,"46":0.032222601771010335,"47":0.05124531356138439,"48":-0.011676121406361846,"49":0.09045399406193672,"50":0.05926901977171717,"51":0.17706024151512026,"52":-0.03136823168354419,"53":0.07734274406407526,"54":-0.075758597406205,"55":-0.09436697269010742,"56":0.058488816563780945,"57":0.02845818392250546,"58":-0.08763221250764427,"59":0.24419524763038103,"60":0.01772718930794289,"61":-0.08755914507529863,"62":-0.11890797096850103,"63":0.0012180166330650658,"64":-0.06982720813867646,"65":-0.03600725535416543,"66":-0.08194350751693409,"67":-0.027749770988545513,"68":0.027003284961893335,"69":-0.14073149733675122,"70":-0.022220794618774783,"71":0.0704211767399228,"72":0.07045235280839368,"73":-0.051954070078802324,"74":0.06600080385054354,"75":-0.25548918306159285,"76":0.025788346428056608,"77":0.09213043418699464,"78":0.04709517536215409,"79":-0.16192827820153954,"80":0.07662226054623189,"81":0.15223445407761504,"82":-0.0359411340241744,"83":-0.017110369056703992,"84":0.07880349362572482,"85":0.12991557399290649,"86":-0.12412827477338885,"87":-0.12754210455445256,"88":0.009091362930253595,"89":0.20416169778152524,"90":0.052528316200785075,"91":0.02728163647268584,"92":-0.04122445379643079,"93":0.1175581258990506,"94":-0.03764827050837052,"95":-0.040652268189678445,"96":-0.005834898201226482,"97":0.06625787247006781,"98":-0.07758818287248902,"99":-0.08008454372131449,"100":0.026920572635083802,"101":0.04729058268666233,"102":0.12385661436951592,"103":0.05833337494384365,"104":0.06317197354893399,"105":-0.19276721581349315,"106":-0.13435204572861492,"107":0.06328757551126249,"108":0.0085826592364581,"109":0.035502253694783346,"110":-0.12479228243177207,"111":-0.0763787986449334,"112":-0.0542775633088223,"113":0.03301028128667745,"114":-0.07278907799833641,"115":0.07296372280168499,"116":0.01820317302277215,"117":-0.01312100282070513,"118":0.17433863807403802,"119":-0.1536743588388304,"120":-0.12133624741481691,"121":-0.07587389690344845,"122":-0.30451858516688257,"123":-0.04994861897609924,"124":0.054299114718222116,"125":-0.20501620254868802,"126":-0.15390979782554134,"127":-0.002018497410634471,"128":-0.07058465593356719,"129":-0.0038119386220341893,"130":-0.10642658939859301,"131":-0.09795822483803247,"132":-0.08444439791466558,"133":-0.1860097315941503,"134":-0.19037641200699484,"135":-0.012165534027358493,"136":0.018865642917231345,"137":-0.03834259734462223,"138":0.018457148944645452,"139":-0.10219115500162362,"140":-0.06401805528023755,"141":-0.03779823309152821,"142":0.06213583145084211,"143":0.040558638652714085,"144":-0.005808992941330488,"145":0.036514797079846215,"146":0.07326520634706557,"147":-0.0957590076362543,"148":-0.12873292395184488,"149":-0.05021217485223746,"150":-0.20555343680680732,"151":-0.1710279751919245,"152":0.1297525049620166,"153":0.09241116825437004,"154":0.012057580195730038,"155":-0.10364275041575818,"156":-0.007630809785528498,"157":0.004697186242433092,"158":-0.08725683123886682,"159":-0.15073422161451655,"160":-0.12146167608470494,"161":-0.1205460637872025,"162":-0.13283712006986567,"163":0.1355883515942656,"164":-0.0323213112721913,"165":0.009091744401851981,"166":-0.07382986749213832,"167":-0.059810520110904764,"168":-0.0326327376079533,"169":-0.14361743229097026,"170":0.009643820807746312,"171":0.1106264613913805,"172":0.051624933274294765,"173":-0.1118841234158531,"174":-0.12706813452151344,"175":0.02280518241171605,"176":-0.10170966452625069,"177":-0.07515714990366053,"178":-0.23916614173621614,"179":0.10403361171390073,"180":-0.00962629608143504,"181":-0.19414792210191995,"182":-0.15714994721001535,"183":-0.05161804145342541,"184":-0.18874642190515314,"185":0.008800578771668274,"186":-0.2357598827604022,"187":0.10528951063049197,"188":-0.10303449450254612,"189":-0.1109394038565055,"190":-0.12381260324051607,"191":0.06273689591888419,"192":-0.023398727230666667,"193":-0.07905294137577114,"194":-0.12946916301204617,"195":0.06674647383201669,"196":-0.09147202068298155,"197":0.012001300798515387,"198":-0.050609347238025376,"199":-0.046668104997432465}},{"sx":5,"sy":5,"depth":8,"w":{"0":0.10525395208077504,"1":-0.08813585314230984,"2":-0.24229428750148185,"3":-0.3083042773728999,"4":0.053691737842110204,"5":-0.23978756855135147,"6":-0.13211134586573103,"7":0.1706208296075648,"8":-0.042305247124083394,"9":-0.025830654195911715,"10":-0.12700437063271175,"11":-0.14352310846120203,"12":-0.0980822056479797,"13":-0.09082875622012546,"14":0.08245934382997523,"15":-0.035151593528055206,"16":0.04641293110224186,"17":-0.09209491023445712,"18":0.10448007645321934,"19":-0.22735194913882004,"20":-0.2333626507016448,"21":0.047946425312371595,"22":0.21129872692465881,"23":-0.07394683742550702,"24":0.05098188943246735,"25":-0.07127073788001419,"26":0.04016728736485283,"27":-0.17293473816808716,"28":-0.0587519289516405,"29":0.02841862134906721,"30":0.10367164321563851,"31":-0.10792424992458426,"32":0.07273622456515075,"33":-0.04235484377151415,"34":0.08383440739302676,"35":-0.1061413429764442,"36":0.024530118606970384,"37":0.01581724421656548,"38":0.08880604553756193,"39":-0.10863570373214206,"40":-0.250214948695797,"41":-0.03422482825212518,"42":-0.30498763438893756,"43":-0.30109057608983425,"44":-0.15512001373091716,"45":-0.1846235976049278,"46":-0.02510507873156262,"47":-0.08345975859800084,"48":-0.26113197357698,"49":-0.04365657247486481,"50":-0.07105924674625866,"51":-0.052687271114504386,"52":-0.21546312061086165,"53":-0.1986995309383993,"54":-0.14740943828706057,"55":-0.03632370010890559,"56":0.11027749737010216,"57":0.05999346991242681,"58":-0.013623069709631851,"59":-0.18182794462583052,"60":-0.17818241045389416,"61":0.06940332552807929,"62":0.005120931648915418,"63":-0.05122610818654686,"64":0.0766926218295386,"65":0.020742618698925575,"66":-0.061598033882225685,"67":-0.18675333152089482,"68":-0.10492223159099369,"69":0.16118977482152985,"70":0.16430086701957528,"71":-0.06911634561021514,"72":0.1064602335018027,"73":0.003634805575772255,"74":0.16566849418759205,"75":-0.03666114512539387,"76":-0.014076400707125573,"77":0.0376754096514598,"78":0.025063980033499002,"79":-0.3393487774067569,"80":-0.0713815905312153,"81":-0.21981879270793722,"82":0.0058605487708271,"83":0.4354592923723004,"84":-0.03434556918610481,"85":-0.14239102678177873,"86":-0.19894833958155086,"87":0.037042224606970126,"88":-0.08995515941445997,"89":-0.2742300574059395,"90":-0.06273075220949186,"91":0.3590312779047476,"92":-0.1202844675335833,"93":-0.1343466622915249,"94":-0.16210178169037628,"95":-0.08613204032091466,"96":-0.18952954751801934,"97":-0.22775790018096456,"98":-0.012422289596228419,"99":0.27083026910524116,"100":-0.2298413575585808,"101":-0.10730372982871685,"102":-0.11957867588305278,"103":0.15836301899695845,"104":0.11123719740491268,"105":0.04957924604846423,"106":-0.16370673305280434,"107":0.05800716049355218,"108":-0.12207631530577917,"109":-0.13028160694819202,"110":-0.03194030352668063,"111":-0.25550492342460884,"112":-0.09827620160533955,"113":0.02969988739543513,"114":-0.16902210466405895,"115":-0.1872898438149357,"116":-0.06649993531749636,"117":-0.15399335053433774,"118":-0.19468398492687838,"119":-0.25908216511520077,"120":0.10831846473977276,"121":0.24711830499013795,"122":-0.06883486475458059,"123":0.16640245114762636,"124":0.09798436496967346,"125":0.3047396120311843,"126":-0.0929989923524944,"127":-0.06236068532511539,"128":0.04142424436109768,"129":0.10997617171015546,"130":0.1797255309844073,"131":0.22814662157421003,"132":-0.019925679154257088,"133":0.03996886819494812,"134":-0.01447879136194753,"135":0.038794659837228865,"136":-0.044207702016839136,"137":-0.25295425343560485,"138":-0.04862326181062075,"139":0.35192657537102223,"140":0.027687727956287433,"141":-0.09762135390412599,"142":0.012398649866993013,"143":0.043567484790055726,"144":-0.0991897539762894,"145":-0.3515221261630538,"146":-0.16318117544995606,"147":0.3293283412104086,"148":-0.07203551421511704,"149":-0.06378624278120996,"150":0.062093498743151815,"151":0.0764212292656543,"152":-0.23001729275774765,"153":-0.311919879668942,"154":-0.019159647651156173,"155":0.04852108825240711,"156":-0.08009174273525356,"157":-0.012063814529461519,"158":-0.2221552431203891,"159":0.0789994165182603,"160":0.12569467278737936,"161":0.43310980083303907,"162":-0.039495688640234256,"163":-0.037086116033385165,"164":-0.032468015149631345,"165":0.11641649576018963,"166":-0.28942273269153806,"167":-0.0857838507501904,"168":0.14773114297033435,"169":0.23078355819231897,"170":-0.06582831723932638,"171":0.040390418989210634,"172":0.0016025885228967453,"173":0.33250083598306884,"174":-0.03099389253314851,"175":0.06054839428444382,"176":0.1633930265440995,"177":-0.01994785594806854,"178":0.08008117364334724,"179":0.13586492595316024,"180":-0.0829225150531822,"181":0.1896196821259284,"182":0.17955453042747133,"183":0.04955928298089282,"184":0.07759857901140417,"185":0.07533468819886298,"186":0.016702470673672063,"187":0.16501296695832257,"188":0.06639230123344463,"189":0.20347959246427888,"190":0.017394690239301732,"191":-0.10268251884073283,"192":0.0013079281820458913,"193":-0.1250925918687765,"194":0.10891385185502572,"195":0.11432803017481,"196":-0.05781357771371822,"197":0.03478494968623993,"198":-0.17053788225771183,"199":-0.05109918382018671}},{"sx":5,"sy":5,"depth":8,"w":{"0":0.14178624146459057,"1":-0.01843862738858521,"2":0.04082035982675347,"3":-0.06605101078026192,"4":0.10906376996140056,"5":-0.04622593410425628,"6":0.05970420606448002,"7":-0.02206565983862921,"8":-0.030377778034640007,"9":0.11065620303912757,"10":-0.029850729592798143,"11":0.15554364757143097,"12":-0.11341350733498833,"13":0.11725488744437731,"14":-0.27114156381811466,"15":0.06772724648942904,"16":-0.09934170408792341,"17":-0.06319095433196749,"18":0.11451233574155649,"19":0.1808141529313555,"20":-0.03258779449018389,"21":-0.14662677706690436,"22":-0.2914232917761947,"23":-0.10586854900133434,"24":0.05713958838336864,"25":-0.010956406961556966,"26":-0.0197449884109869,"27":0.15264085300423585,"28":-0.11229435580070192,"29":-0.03604289836183665,"30":-0.17638022717717916,"31":-0.17729005859707467,"32":0.06185616742270894,"33":-0.06093899509972213,"34":-0.14875114854871505,"35":-0.035420980137692445,"36":-0.04935655848361232,"37":0.12346176043849198,"38":0.047389158552219084,"39":-0.09090372594511265,"40":0.08658387367487363,"41":0.04135641843853953,"42":0.009156775474604684,"43":-0.12690144201949613,"44":-0.029314523003566215,"45":0.04415386654639739,"46":0.10351388727495674,"47":0.06297123449203389,"48":0.08003175741814618,"49":-0.040229458819522314,"50":-0.07034868125648569,"51":0.0683225362724804,"52":-0.032623571661483074,"53":0.009311263093538615,"54":-0.07368369830488845,"55":-0.06963785667898777,"56":-0.03415045251903993,"57":-0.22051666672599746,"58":-0.0717099275124324,"59":0.10352437785917072,"60":-0.024909472449606927,"61":-0.19712196100594576,"62":-0.07507734856224446,"63":0.09101386298485349,"64":-0.03836680336985002,"65":0.0308237053975175,"66":-0.1463457382338869,"67":0.004758920695985473,"68":0.11826793386531126,"69":-0.11245975181562155,"70":-0.048372707420249614,"71":0.06433329622219432,"72":0.09291526709953254,"73":-0.06540759098792256,"74":0.2022472671802353,"75":-0.21576948461773174,"76":-0.22592838668012927,"77":0.14606583617170157,"78":0.2367393583836843,"79":-0.24768761086011407,"80":0.08611778996507938,"81":-0.18325987487698328,"82":0.1424839812047881,"83":-0.07755169904102628,"84":-0.10657729185267885,"85":-0.014046903542040048,"86":-0.09978718195615575,"87":-0.11535661027039547,"88":0.013303012305681086,"89":-0.175323477905306,"90":0.05996299587976588,"91":-0.0870661383190127,"92":0.0021998897232142593,"93":0.041202959285388974,"94":0.09820932714442869,"95":-0.020469061070251725,"96":-0.07583267424189727,"97":-0.10463494086435812,"98":-0.27440815814555053,"99":0.0639324746163401,"100":0.0491914789989538,"101":-0.407317020411168,"102":-0.04421112995725209,"103":0.05578446770499119,"104":0.11384787375374833,"105":-0.12973338774346038,"106":-0.17570951102261514,"107":0.039227259714797055,"108":0.011363512344406156,"109":-0.037729571180259935,"110":0.04741634557066693,"111":-0.10525710127769689,"112":0.02962785467223574,"113":-0.11511370747233311,"114":0.09115493587007642,"115":-0.10868593356687715,"116":-0.20965593188569265,"117":0.05705418352575391,"118":0.2795139488313774,"119":-0.16316508162657176,"120":0.028441528982973398,"121":-0.018977322633622163,"122":0.058595643803356995,"123":-0.03148241742925985,"124":-0.05019275130166467,"125":-0.018002231878395614,"126":0.04038610733298448,"127":-0.06312417343563849,"128":-0.022447231497924987,"129":-0.08551017781754394,"130":0.12256881532517243,"131":-0.21192307640955524,"132":0.1836782160053892,"133":0.04053673748052521,"134":0.09944444530746678,"135":0.19713533788905177,"136":-0.026274134499218026,"137":-0.06139634820641133,"138":-0.14485563097011245,"139":-0.15806634648393644,"140":0.1462988469650353,"141":-0.23591018895988572,"142":-0.07160752720070084,"143":-0.017556267146111422,"144":-0.03237399808442508,"145":-0.10693898523932475,"146":0.008337967724648324,"147":0.04631587620094064,"148":-0.04092543904541763,"149":-0.061705693390896994,"150":0.015245443817821286,"151":0.11554599665114494,"152":0.04618984205718853,"153":-0.13070000436806486,"154":-0.014859404344854355,"155":-0.14657335004439345,"156":-0.355694229982096,"157":0.174375842759741,"158":0.22625594597144302,"159":-0.21026594857845857,"160":0.03691174556315947,"161":0.05213649275150783,"162":-0.05168587472921339,"163":-0.07627307498898685,"164":0.021442033933566064,"165":0.08521899886680592,"166":-0.0550669102315863,"167":0.02683507655301578,"168":0.023084672785168805,"169":0.10434518485289762,"170":-0.01724430550855941,"171":-0.10061329599933799,"172":0.08300491526753463,"173":-0.029275519647299464,"174":0.21421446483586673,"175":0.12796307103850402,"176":0.06596767147500017,"177":-0.08588030628232685,"178":-0.0361636443591805,"179":-0.14018296823631185,"180":0.058150474747437404,"181":-0.05406376157971021,"182":0.0788781231742378,"183":0.10377393253766838,"184":-0.141419476578236,"185":-0.0980804829334282,"186":0.034232681352046025,"187":0.06013225833505523,"188":-0.13338887762256763,"189":-0.06882325408151414,"190":-0.15054490204189094,"191":0.05428988693401315,"192":0.16061853388595757,"193":-0.10933389070641689,"194":0.18729925266030514,"195":-0.08065925256253068,"196":-0.01663022269858803,"197":0.09096578914187059,"198":-0.07236343158090193,"199":-0.15859022666237027}},{"sx":5,"sy":5,"depth":8,"w":{"0":0.09248367068346829,"1":0.017223852596588943,"2":-0.0013022486045288992,"3":-0.08924517947900022,"4":-0.002230689221307671,"5":0.04035541400645353,"6":0.1848579557409259,"7":0.12254361504113966,"8":-0.18233447126628768,"9":-0.031263198092355886,"10":-0.09932367600757586,"11":-0.14973636154346154,"12":-0.07679863269864363,"13":-0.03440207186806088,"14":0.1307285144307652,"15":-0.07813090859673145,"16":-0.11811483829038705,"17":-0.028592330684253275,"18":-0.1232476566125572,"19":0.014731872952071701,"20":-0.011957551698450596,"21":-0.027547298119943213,"22":-0.17262742279745966,"23":0.07947589053114895,"24":-0.1133273149450401,"25":-0.1410355193046427,"26":-0.18639151404836443,"27":-0.12528709097624377,"28":-0.3024975341708355,"29":-0.07013648308088381,"30":-0.0864651865379082,"31":-0.019432727115486152,"32":0.05539892411730851,"33":-0.16447705773386884,"34":-0.07813261467958968,"35":-0.032503093176859274,"36":0.003917074619613063,"37":-0.1764445473938259,"38":-0.03287705732041322,"39":0.019365131267931837,"40":0.12372824551382618,"41":0.04788078082475022,"42":0.08602608803759655,"43":0.21063061440127057,"44":0.1529691775362462,"45":-0.030760548602238105,"46":0.07161441385733107,"47":0.12357539538605926,"48":0.00759741050215793,"49":0.04553539280202773,"50":0.11229318680687342,"51":0.24696076595348818,"52":-0.025744348684061318,"53":0.13330149346851794,"54":0.08873131863803502,"55":0.11069000751084344,"56":0.03625246872498449,"57":0.07041422766602771,"58":-0.05449653860391142,"59":0.27246458460224804,"60":-0.013979480906085482,"61":-0.10320366964471288,"62":0.10551101672265102,"63":0.02639637597040223,"64":0.11173395888505416,"65":0.05712015496357513,"66":0.20890783367924917,"67":0.10648475330357689,"68":0.00927317682661843,"69":0.08055028750918913,"70":-0.0941863361807124,"71":-0.16248457367346225,"72":-0.026084794662778524,"73":0.08687970078272095,"74":0.2705526705480124,"75":-0.027396842373775605,"76":0.09937238103726947,"77":0.16390549650444472,"78":0.027472863956602395,"79":-0.10723570661304133,"80":0.09862359834806836,"81":0.022568440985732123,"82":-0.025670701102993496,"83":-0.10569952292226346,"84":-0.08286459696247457,"85":0.022084799850083436,"86":0.019483600108443244,"87":-0.0884732429162952,"88":0.23514399174954528,"89":0.12324272655856831,"90":0.08381909569401311,"91":0.044797418052264844,"92":0.12700781778631992,"93":0.17723788551806427,"94":-0.06650906818083402,"95":-0.12836783659581155,"96":0.11365822738358076,"97":0.18980855501947805,"98":0.02175805536980814,"99":-0.1074155521413367,"100":0.056025224419992976,"101":0.10091000546244884,"102":0.0054523043154250895,"103":-0.1235677431945018,"104":0.17228930274530638,"105":0.16545267815184356,"106":0.09781227114791988,"107":-0.22919028713094827,"108":-0.00015954555817196316,"109":0.12602317949570796,"110":-0.07029878232046594,"111":-0.14196771600368796,"112":0.052495722500260675,"113":0.3341363039842538,"114":-0.04513922190380193,"115":-0.19664371998686764,"116":0.016959721407531374,"117":0.2181744455433925,"118":-0.13256715575737288,"119":-0.07032155563407576,"120":-0.11054341991438546,"121":-0.035917824533238704,"122":-0.10482675381941886,"123":-0.028327706795102225,"124":-0.11007503498069723,"125":-0.1480201145346934,"126":-0.13528223736173423,"127":0.17808734229243064,"128":-0.14660843880767627,"129":0.024096021698800405,"130":-0.19385558469116312,"131":-0.025504141452046377,"132":-0.08925114107540935,"133":-0.2007723267540598,"134":-0.05749200583300511,"135":-0.020980420038499308,"136":-0.04983013278069969,"137":-0.11557567257736481,"138":-0.07549009732080733,"139":-0.018701988999799146,"140":-0.09598439746607643,"141":-0.2964190836241643,"142":-0.16135433113905906,"143":-0.18447896854686888,"144":-0.0904358621724498,"145":-0.15282647237383082,"146":-0.07156883093425262,"147":0.0722205626055483,"148":-0.265491635792133,"149":-0.12022169845012061,"150":-0.03031701043307292,"151":-0.23483416521979253,"152":-0.07195893625374832,"153":-0.06986271857779153,"154":-0.059108733301584476,"155":-0.0601568851034886,"156":-0.08416353172864659,"157":-0.23889916780180462,"158":-0.23143477526908804,"159":-0.07638353427300591,"160":-0.3047482210198917,"161":-0.07209632279985802,"162":0.006639869521503601,"163":0.12631568674806198,"164":-0.1952892912378549,"165":-0.08833773074563794,"166":-0.1436748741801261,"167":0.07669931600715525,"168":0.051908981528482646,"169":0.031075357594388422,"170":-0.04026435566149119,"171":0.04053091968645622,"172":-0.1624527353512806,"173":-0.03683658688545465,"174":0.11528783110512891,"175":-0.014823025046034803,"176":0.0017582561588556046,"177":-0.23202767173012845,"178":0.17609115473909334,"179":-0.07358826033671322,"180":-0.1880188585349737,"181":-0.06863129790414858,"182":0.46290653611971017,"183":-0.031824343248140145,"184":-0.08970471184001819,"185":-0.23000411390242767,"186":0.1160524358867827,"187":-0.005149549752082623,"188":0.0790353310595401,"189":-0.041467732454677816,"190":0.12223895885142903,"191":-0.06475257980237861,"192":0.0015746395584178125,"193":-0.2544619571121126,"194":0.11455774730238065,"195":0.1955682181755251,"196":-0.10250125782887898,"197":0.02419199218296873,"198":0.0647662912753846,"199":0.1025897624688332}},{"sx":5,"sy":5,"depth":8,"w":{"0":0.17617510733418623,"1":0.10154169299012258,"2":0.05399694204453099,"3":-0.12254964446740417,"4":0.014960749076484514,"5":-0.013786730297360428,"6":0.1511930736578847,"7":-0.20814967805666235,"8":-0.05759484358694324,"9":0.11570780094860147,"10":-0.15762985544679986,"11":0.1423189460060574,"12":0.14002394872933616,"13":-0.011404259005378177,"14":-0.10837519120159114,"15":0.008027552481514164,"16":-0.10334490259772847,"17":-0.19259382330340322,"18":-0.09515002818813381,"19":0.31683537157802866,"20":0.06774496623577352,"21":-0.20234137493403292,"22":-0.17561995143825251,"23":0.1506765832614683,"24":-0.161715299958184,"25":-0.2734104725945779,"26":-0.16574347526030442,"27":0.2284922953928556,"28":-0.031531272515500315,"29":-0.27095770307473527,"30":-0.16196575523817663,"31":-0.03909809004325673,"32":-0.03536413406537703,"33":-0.18212229835905572,"34":-0.27050725233900086,"35":-0.055228430160065865,"36":-0.13295130929946794,"37":-0.11680604280880327,"38":0.06533452258133454,"39":-0.20312924121668358,"40":0.022259882501908454,"41":0.08769547503802204,"42":0.15338755541677618,"43":-0.107140795351434,"44":-0.17319327910839294,"45":-0.021034730309397155,"46":-0.06362376750948508,"47":-0.18583864682743367,"48":0.06972138107135172,"49":0.04760115028706806,"50":-0.08657332849731593,"51":-0.11604513103093086,"52":0.031124498752200712,"53":0.09568419610826573,"54":0.07606021991474426,"55":-0.05466056663345132,"56":-0.07785757548700256,"57":0.009818859064618903,"58":-0.11525788077149296,"59":0.21388780529690038,"60":0.15262385712106677,"61":-0.04492030894750588,"62":0.0015741518130210433,"63":0.03822049419320067,"64":-0.13069520233130538,"65":-0.2802414784302352,"66":-0.11663001428419374,"67":0.2901374594003366,"68":0.07420161661009088,"69":-0.48533260490140867,"70":-0.22780981519315463,"71":0.14660439895605207,"72":-0.0738557857870626,"73":-0.24534726299519596,"74":-0.19396622970772498,"75":0.15611171440676966,"76":-0.13003788250763426,"77":-0.1050702533083284,"78":-0.016389440801390542,"79":-0.008615346862790663,"80":0.17506615921981192,"81":-0.11419745388925687,"82":0.025456028033846657,"83":-0.18683495483233092,"84":-0.11202518779332378,"85":0.059273908130818,"86":-0.12587253712742902,"87":-0.2654209306000276,"88":0.12148165840196527,"89":-0.06803516760007856,"90":0.13929734532763757,"91":-0.1495232657141611,"92":-0.0073129174175579695,"93":0.28189918813278847,"94":0.17481844241600178,"95":0.05649851872863369,"96":0.021588763173799253,"97":0.016558481173691183,"98":0.08629005721128964,"99":-0.2026626581804601,"100":0.001934767586911453,"101":0.10944174376486843,"102":0.29771713350728163,"103":0.02816038262865326,"104":-0.19385771779760375,"105":-0.0843784412831473,"106":-0.09531484412059207,"107":0.32530534217037965,"108":0.11272227215013376,"109":-0.3921709686447935,"110":-0.2601369497096097,"111":0.19382084312672504,"112":-0.20610022528595245,"113":-0.3541230209079478,"114":-0.06974548597691006,"115":0.01989256182724875,"116":-0.11863345708498352,"117":-0.10388820944805302,"118":0.03183014554000651,"119":0.007248978858733216,"120":0.03407483980175237,"121":-0.14845387109338898,"122":-0.05372139516023386,"123":-0.20547789020487547,"124":-0.14044828262079648,"125":0.22894246605788324,"126":-0.1097613143203034,"127":-0.3090074435549802,"128":0.10442766565865287,"129":0.13828056082568432,"130":0.05024677682962739,"131":-0.40703770452973304,"132":0.03916638547841898,"133":0.0345560516097328,"134":0.16999876100477812,"135":0.04534288020132153,"136":0.026671561121262018,"137":0.041308648595515855,"138":-0.01524108032584268,"139":-0.1754650887537011,"140":-0.0330691864568605,"141":0.10547493966218924,"142":0.3595497441503368,"143":0.146822707972225,"144":-0.0833153774545883,"145":-0.08536169247007042,"146":-0.21835935777442816,"147":-0.057418583912902076,"148":-0.03597448133693727,"149":-0.26872529865140515,"150":-0.002578875525763016,"151":0.14645777208836108,"152":-0.07435472749952426,"153":-0.2202009894575921,"154":-0.19430205233353887,"155":0.10698054634460498,"156":-0.032132652974766376,"157":-0.09349063211892582,"158":0.06297244405139008,"159":-0.07558053506449547,"160":-0.11395809966014181,"161":-0.04679535775924087,"162":-0.21021849326449857,"163":-0.17623834246590547,"164":-0.12316399863114992,"165":-0.00042286436915166346,"166":-0.05517141834660112,"167":-0.2266650249254698,"168":0.1353687569508888,"169":-0.011084667729011807,"170":0.004870165942586243,"171":-0.2834354047895125,"172":-0.2453083268659125,"173":0.14219206942852317,"174":0.3133421070434972,"175":-0.16059020983860486,"176":0.0778882827562699,"177":0.04342955546191142,"178":-0.04144230948566321,"179":-0.213656493396395,"180":-0.1755436466077084,"181":0.09947352543876287,"182":0.17264160269863313,"183":-0.037246958368999716,"184":-0.017667160239717646,"185":-0.017786427466407698,"186":-0.14208903292485228,"187":-0.028456177605401353,"188":0.036787527573425856,"189":0.020419203094594527,"190":-0.04365216954284973,"191":0.0015378001756754201,"192":-0.015301600314122463,"193":0.030517385508420973,"194":-0.060363903691034726,"195":-0.1300265762420971,"196":-0.11609823135184975,"197":-0.09813759695185412,"198":0.12927015842332334,"199":0.08158285678875207}},{"sx":5,"sy":5,"depth":8,"w":{"0":0.009578114473159885,"1":-0.15383689402749137,"2":-0.01162993987254488,"3":0.3053875179770959,"4":-0.04750281857414313,"5":0.00548498526094408,"6":0.17109773111880552,"7":0.06770623841173776,"8":-0.03359422629731872,"9":-0.09968490460487472,"10":0.048857995576464065,"11":0.06433226553238124,"12":0.0649541889478263,"13":0.027047304410330278,"14":0.022788785963338297,"15":0.08825323880325105,"16":0.04230456389859709,"17":-0.03488393116861445,"18":0.24857659897250053,"19":-0.04832999853237933,"20":0.0975978254435789,"21":0.10181206819633092,"22":0.12951742088810667,"23":-0.07534343279235217,"24":0.1789617738874781,"25":0.031218621750300418,"26":0.10765722475388254,"27":0.0012028524231582531,"28":0.2754777752182585,"29":0.07337570360418273,"30":0.05564923060177629,"31":-0.062242634070191864,"32":0.18124309786744047,"33":0.12072755000817992,"34":0.050296986344425546,"35":-0.12515184874295313,"36":0.3239256626660562,"37":-0.06808751650617546,"38":0.05752836895409521,"39":0.0911189961834259,"40":0.05780593826846689,"41":0.10791368040404811,"42":0.06347669186239657,"43":0.17526939610324438,"44":0.097391028832414,"45":0.07430948110708833,"46":-0.09336921126446175,"47":0.14650789762507116,"48":0.07422890940298388,"49":0.11872560157222752,"50":-0.04843896138774681,"51":0.1087959379693278,"52":0.0005177824184543891,"53":0.13460263467071454,"54":0.15740031992496878,"55":0.06899516341738124,"56":0.000201826415027513,"57":0.18861807196638258,"58":-0.008878472540649256,"59":-0.07158462853288564,"60":0.06820029532369987,"61":0.2268374940582619,"62":0.054495276939590095,"63":0.056531397276288156,"64":-0.1115853716795442,"65":0.1809804840470866,"66":0.08372842922624828,"67":-0.07555930106101137,"68":0.018953324051995284,"69":0.11851528381246156,"70":-0.14437480873292927,"71":0.03378421810806152,"72":-0.15012570127682287,"73":0.053609740629328384,"74":-0.21508871851880415,"75":-0.10235212863372978,"76":0.19958586455566732,"77":-0.012868273112055753,"78":-0.020590756437923352,"79":-0.011158008096398662,"80":0.20762501948937973,"81":0.2035447496789319,"82":-0.27137387121442935,"83":-0.1738648247704779,"84":0.04752622978755041,"85":-0.11842044347751803,"86":-0.1427637833448374,"87":-0.004150838541724477,"88":0.1264391765760785,"89":0.22526781794548487,"90":-0.04417314270190865,"91":-0.1022862888226247,"92":-0.000012417468531262182,"93":-0.0005717093461688506,"94":-0.27932004998029636,"95":-0.20662423584181533,"96":0.08708523286555864,"97":0.1126507405690485,"98":-0.13892431189522472,"99":-0.0007015884907326375,"100":0.03065647422341764,"101":0.04205606228742266,"102":-0.11658864080973647,"103":-0.07423186395336541,"104":-0.15743359276441493,"105":0.018385101071896157,"106":-0.25113182521141875,"107":-0.08091469102302605,"108":-0.08253150355326276,"109":-0.31632424907168927,"110":-0.02364579795217384,"111":0.05315314330422909,"112":-0.1665833396590766,"113":-0.081021457255308,"114":-0.020481554757912065,"115":-0.11291205450421948,"116":-0.03293041662213286,"117":-0.26896651199365607,"118":-0.02897801865703221,"119":-0.08510318263285867,"120":-0.14251752791568684,"121":0.023939643554133583,"122":-0.042625039157984844,"123":0.14761588329241584,"124":-0.04562304838989553,"125":-0.1540892645223445,"126":-0.20777132749853533,"127":-0.22020444240101686,"128":-0.22921438296044458,"129":-0.23220681826625314,"130":-0.11967047145660324,"131":0.20522632392826,"132":-0.28758716173026067,"133":-0.06740129828443317,"134":-0.16618815447073446,"135":-0.14117419549066043,"136":-0.07848045914004247,"137":-0.22208135949734686,"138":-0.06797762051728104,"139":0.22179990902445065,"140":-0.2643226405943881,"141":-0.29307688544392,"142":-0.05424126210915681,"143":-0.12498558255718245,"144":-0.2056321612187949,"145":-0.3458826909585871,"146":-0.08165269227210936,"147":0.028645690474833563,"148":-0.28547173857716707,"149":-0.1607331659292429,"150":0.029458884146471565,"151":-0.033289488610587434,"152":-0.06369171549875206,"153":-0.2665105970795183,"154":0.024848011367257034,"155":0.1480543990769752,"156":-0.16563786420432822,"157":-0.1873654520587789,"158":0.04389114580356835,"159":0.058891223727899455,"160":-0.12381119292165743,"161":-0.04920665494320786,"162":-0.017907318860463976,"163":0.09034294176417372,"164":-0.004430595099779061,"165":-0.044422734451072296,"166":-0.050380851951159704,"167":-0.10564945622400373,"168":0.009121379329604258,"169":-0.051000952368389245,"170":0.0006360308133500907,"171":0.013182364532729482,"172":-0.1004037065560625,"173":-0.08103241498560634,"174":0.13683398173457703,"175":-0.0735145395722873,"176":-0.09449259644947017,"177":-0.13734155386999955,"178":-0.1610264325870146,"179":0.08403915373280503,"180":0.0579206448957516,"181":-0.05366294974197173,"182":0.11973861752181858,"183":-0.09082412335864858,"184":-0.03780471394977002,"185":-0.18293689728259455,"186":0.024241880008824806,"187":0.1547069841868895,"188":-0.2544856772098924,"189":-0.0014455932520893448,"190":0.3525055863346541,"191":0.006366995884915739,"192":-0.047125020928723636,"193":-0.05600951625196806,"194":-0.01836432056698394,"195":0.1215706405158608,"196":-0.04677715507966281,"197":0.014680824820366794,"198":0.09363902379281971,"199":0.038618187989264974}}],"biases":{"sx":1,"sy":1,"depth":16,"w":{"0":0.02493823156345539,"1":0.008994704203478983,"2":0.020800288609587776,"3":-0.04205163947844079,"4":-0.0040338552551288515,"5":-0.016367614966935,"6":0.04601390095091371,"7":0.015774645993308824,"8":-0.03942353179901875,"9":0.029884462156642512,"10":0.02189169100338506,"11":-0.0517160083720022,"12":-0.042688491634231836,"13":0.07941815884573789,"14":-0.019157556484723292,"15":0.01711066358489465}}},{"out_depth":16,"out_sx":12,"out_sy":12,"layer_type":"relu"},{"sx":3,"sy":3,"stride":3,"in_depth":16,"out_depth":16,"out_sx":4,"out_sy":4,"layer_type":"pool","pad":0},{"out_depth":10,"out_sx":1,"out_sy":1,"layer_type":"fc","num_inputs":256,"l1_decay_mul":0,"l2_decay_mul":1,"filters":[{"sx":1,"sy":1,"depth":256,"w":{"0":-0.07464526176855805,"1":-0.0056606581937367504,"2":0.011799665036534963,"3":-0.11683601559243466,"4":-0.08492987656956538,"5":0.05787143116704252,"6":-0.2237922609143361,"7":-0.025208695886045636,"8":-0.05061832972736862,"9":0.019906683051443563,"10":-0.24374870151197076,"11":0.04370317930851812,"12":-0.06669047650097853,"13":0.028207370710222144,"14":0.001258992953290397,"15":0.05476331018872174,"16":-0.17598719246132782,"17":-0.004019674282839495,"18":0.03564571181407686,"19":-0.140635522769116,"20":-0.08645926374700948,"21":0.09970904300467676,"22":-0.1241308463718342,"23":0.0073557742784460785,"24":-0.015491791840239398,"25":-0.03808154698625016,"26":-0.1339311658301695,"27":-0.04106088430396174,"28":-0.15490879850621458,"29":-0.027176312350830158,"30":-0.19724552775005738,"31":-0.039258134555107946,"32":-0.05482539242696754,"33":-0.06541987532375507,"34":-0.06297467829202094,"35":-0.03787496424849508,"36":-0.013604876765168064,"37":0.05207551364917409,"38":-0.04273714497552226,"39":0.09039664991549086,"40":0.0748882244059017,"41":-0.16801971111747876,"42":-0.004706934397609042,"43":0.027216695954482385,"44":-0.016443551107482166,"45":-0.16102299546218474,"46":0.011560311678370919,"47":-0.07945828508841575,"48":-0.1725534120226932,"49":0.03093811304605811,"50":0.045967833144766934,"51":-0.17259196215121891,"52":-0.22168687246344496,"53":-0.09571791609296974,"54":0.11598268389476162,"55":0.029437007056115745,"56":0.007490941996641406,"57":-0.22653159563194675,"58":-0.16667511355172726,"59":-0.012929616478635445,"60":0.02367263645370849,"61":-0.17446525829402065,"62":0.07562158782258718,"63":-0.2997877367387327,"64":-0.34124967854025384,"65":0.024801835374473395,"66":0.061571488708303874,"67":-0.04804954181364579,"68":0.0019973680776177436,"69":0.08984981879207697,"70":-0.16184173388329143,"71":-0.08670018297800167,"72":-0.04082297303931306,"73":-0.17676544557354987,"74":0.07270783172776875,"75":-0.05813890436845175,"76":0.011822454892573952,"77":-0.4100644453661774,"78":-0.05620996096781497,"79":-0.12453911858290864,"80":-0.1358171065046096,"81":0.06987117155092859,"82":-0.012773371860975533,"83":0.2842879635089339,"84":-0.06562448474655341,"85":-0.07736244422119666,"86":-0.10658335935492105,"87":-0.21531809271827954,"88":0.06709293445121293,"89":-0.008348054120859146,"90":0.07639766573408213,"91":-0.072868710052637,"92":0.061670788053804826,"93":-0.07597151317463033,"94":0.013668505002024368,"95":-0.0039378181918123525,"96":0.023979474608991167,"97":-0.07336115046984414,"98":0.0765572053761327,"99":-0.05410347996441357,"100":0.0832057042688404,"101":-0.07684790138474651,"102":0.005003740659108492,"103":-0.09844986443115213,"104":0.03409851074634414,"105":-0.04376231552652951,"106":0.02694980226169802,"107":-0.18081138768814867,"108":-0.0011768723209460098,"109":0.030682708890701297,"110":-0.06109593791919077,"111":-0.05730039206278657,"112":-0.38034096876383994,"113":-0.0976237458526818,"114":0.23009512849794506,"115":-0.10865190805884138,"116":0.1233284452683238,"117":0.06999233614117145,"118":-0.15331530059066623,"119":-0.02837063808119725,"120":-0.017893196591091017,"121":-0.16184070793822736,"122":-0.08827273420463348,"123":-0.023610718613551986,"124":0.0025413968212386344,"125":-0.07118603155032809,"126":0.12982906818142465,"127":-0.1651067031506892,"128":-0.13700103925332008,"129":0.014344515222582264,"130":0.13401374281671646,"131":0.09323774010691627,"132":0.07141355361118168,"133":-0.029099134973416676,"134":-0.1469705894988693,"135":-0.03405488508511904,"136":-0.014107181003002216,"137":-0.10343622822116078,"138":0.07512039159417844,"139":-0.16448857333891737,"140":-0.10909995649151503,"141":-0.14974231166760027,"142":-0.04995797713568303,"143":-0.2750208867732802,"144":0.025541705711689355,"145":-0.056528626361737076,"146":-0.1300709569388007,"147":0.19869034892458082,"148":-0.06235958171382398,"149":-0.07241188280328381,"150":-0.06256304071919233,"151":-0.3485270933728478,"152":-0.09417115583661269,"153":0.08564241827575636,"154":-0.09270235254912981,"155":-0.096525818093718,"156":0.026059472937968137,"157":-0.19184019446530365,"158":0.0524285212879615,"159":-0.015220318129279134,"160":0.06925059110894187,"161":-0.045499559644718794,"162":-0.02716662979875217,"163":-0.007527359164195472,"164":0.06393965634767525,"165":0.10373647655159568,"166":0.0664184668100344,"167":-0.11074442056332573,"168":-0.023834456464513404,"169":0.0938678045922745,"170":0.029727444278705818,"171":0.05847678370249231,"172":0.014494078040875772,"173":-0.09871583016144074,"174":-0.05774327247485651,"175":0.0185697204294564,"176":-0.09267971050971202,"177":0.0890255612806623,"178":-0.0020880246424687596,"179":0.0034910823490443494,"180":0.11806802196249279,"181":-0.0077523292772043095,"182":-0.07474565658426145,"183":0.040601533612168554,"184":0.04665772349523832,"185":0.023286311808040024,"186":-0.027107347404394525,"187":-0.18495529854743017,"188":-0.013778466195091607,"189":0.05329120932843301,"190":0.10365714807931059,"191":0.07131499227082515,"192":-0.15416091923373942,"193":-0.07412743657696574,"194":-0.006001223772055616,"195":-0.13447226000087958,"196":0.05667168375318755,"197":-0.11230593252489679,"198":0.11623591258256766,"199":0.11346935222536839,"200":-0.00041755374464126936,"201":-0.08680532335462318,"202":-0.05812139644120105,"203":-0.05126482733868835,"204":0.007275690803832876,"205":0.05328617922031128,"206":0.06565755087093207,"207":-0.09812536353472573,"208":-0.13881263444467715,"209":-0.10402147267399788,"210":0.05301992178358201,"211":-0.25951777720190283,"212":-0.012439642476838597,"213":-0.0889819849800179,"214":-0.07189487765109862,"215":-0.04245476108782864,"216":-0.1598315896744289,"217":-0.058905318249673544,"218":0.004740929306724362,"219":0.013399409267302721,"220":-0.04886702467453138,"221":0.08287460678826834,"222":0.05795351608717317,"223":-0.06133061600963511,"224":-0.18599584766517518,"225":0.05464252256560704,"226":0.010965064521815008,"227":-0.054400265955230336,"228":-0.23520392445369137,"229":0.004188019584140484,"230":0.004689453464198094,"231":-0.012239178552186222,"232":-0.13217131486490408,"233":0.12073918753558065,"234":-0.05529351126222121,"235":0.14014771325899067,"236":-0.2009278335681319,"237":0.012672306172284707,"238":-0.19168116857557396,"239":0.15640584499255505,"240":0.073107569389575,"241":0.09886106282296353,"242":-0.018465152032313685,"243":0.05037837453191035,"244":-0.25741106906241457,"245":0.055660416377386814,"246":0.129456316958412,"247":0.039195401332557896,"248":0.01959005082869873,"249":0.03589910359168579,"250":-0.12712243661344602,"251":-0.1251961753550534,"252":-0.030210362469728518,"253":-0.12813791271344507,"254":-0.07628548919116168,"255":0.18721646920992754}},{"sx":1,"sy":1,"depth":256,"w":{"0":0.011321937713757077,"1":-0.07436015646135627,"2":-0.026325141582577566,"3":0.06975021802280292,"4":-0.09284462422830456,"5":-0.12348406736806053,"6":0.050035646616189436,"7":-0.16580506520203855,"8":-0.15726138320486086,"9":0.015190490177753976,"10":-0.10131105609784086,"11":-0.005894892103519462,"12":0.02078470153898082,"13":-0.06816446299814895,"14":-0.09844623436826862,"15":0.02957095856678,"16":-0.08336311455463834,"17":-0.030742904313420007,"18":-0.1316467570729653,"19":0.008455282557239052,"20":0.13892511852640507,"21":0.1028473384265898,"22":-0.0076724033225493435,"23":0.08685962076802385,"24":-0.05048806008874754,"25":-0.12791765763272822,"26":0.01706326273724559,"27":-0.0987408966795765,"28":0.1347863155109419,"29":-0.179832020178219,"30":0.11652151278915512,"31":-0.03417443378310264,"32":-0.0350263997324667,"33":-0.0481979388876641,"34":0.07095382417556688,"35":0.12096336050304453,"36":0.1452492695412188,"37":0.09574613633362657,"38":-0.22666535609124458,"39":0.07803960279055588,"40":0.14624041314340647,"41":0.06525331297459094,"42":-0.0008766784151577262,"43":0.01573659086989489,"44":0.14290265024713,"45":-0.10011811767505768,"46":0.08354595552874197,"47":-0.012068893738932399,"48":0.050362411398452836,"49":-0.06085688529553415,"50":-0.08353284314904817,"51":-0.06893203918694246,"52":0.07423477646692864,"53":-0.045863616224293746,"54":0.07788681432946823,"55":0.024070601435433735,"56":0.03154041630307999,"57":0.10636278287677212,"58":-0.15437182016827594,"59":-0.19084054914011148,"60":0.09326532616001731,"61":0.08205938778370424,"62":0.15496234110451523,"63":0.06024168200454792,"64":0.026259898055830587,"65":-0.17616946641945677,"66":-0.1622269754963348,"67":-0.09439434714920521,"68":-0.24039753317649762,"69":-0.20975372550120772,"70":-0.00023680548708380112,"71":-0.19760252821456192,"72":-0.26845065581350186,"73":-0.08381696313337263,"74":-0.07295397542430092,"75":-0.001694386165440791,"76":-0.08765485936537729,"77":-0.09641223890177143,"78":-0.10006650426861904,"79":-0.07085940465985305,"80":-0.09297993553727227,"81":-0.06550250819189116,"82":-0.021908072393117695,"83":-0.11967740294154808,"84":-0.12835075958196415,"85":0.10467353296911289,"86":-0.04411701131470966,"87":-0.02438414366182503,"88":0.07722183817391055,"89":-0.14730364253318148,"90":0.09561506326046745,"91":-0.080980747296546,"92":-0.06644627338200661,"93":-0.15153005164149957,"94":0.11341369958901332,"95":-0.02423977437200128,"96":0.04213450691587506,"97":-0.2533250546601812,"98":-0.25089875617073587,